\data\
ngram 1=64000
ngram 2=6501697
ngram 3=12151781

\1-grams:
-5.1147	'CAUSE	-0.6412
-4.7216	'EM	-0.4181
-4.8234	'N	-0.2180
-5.4404	'TIL	-0.3237
-2.1582	</S>	0.0000
-99.0000	<S>	-1.4264
-0.9092	<UNK>	-0.0674
-2.3206	A	-1.2848
-4.9854	A'S	-0.1980
-3.5713	A.	-0.3449
-6.0852	A.'S	-0.1937
-6.0705	AACHEN	-0.1607
-5.3923	AAMODT	-0.2568
-4.4231	AARON	-0.3786
-5.6446	AARON'S	-0.1008
-6.1163	AARONS	-0.1222
-5.9349	AARONSON	-0.1556
-5.4832	AB	-0.1553
-6.5934	ABABA	-0.0075
-4.8637	ABACHA	-0.3262
-6.1497	ABACK	-0.0907
-5.9913	ABACO	-0.2128
-5.6843	ABACUS	-0.1745
-5.5063	ABAD	-0.2107
-5.9042	ABADI	-0.1444
-5.5063	ABALONE	-0.1869
-4.7850	ABANDON	-0.2723
-4.1626	ABANDONED	-0.4681
-4.7724	ABANDONING	-0.3732
-5.0648	ABANDONMENT	-0.4457
-5.2621	ABANDONS	-0.3935
-5.8944	ABARE	-0.2170
-6.1497	ABASCAL	-0.0652
-6.0705	ABASHED	-0.1371
-5.4869	ABATE	-0.1876
-5.3355	ABATED	-0.3211
-5.7768	ABATEMENT	-0.1814
-6.3715	ABATEMENTS	-0.0184
-5.9913	ABATING	-0.1389
-5.4141	ABBA	-0.1850
-6.1674	ABBADO	-0.0922
-4.8478	ABBAS	-0.2814
-5.7695	ABBASI	-0.1592
-5.5520	ABBE	-0.2770
-5.0466	ABBEY	-0.2711
-6.0425	ABBEY'S	0.0000
-5.7088	ABBIE	-0.2472
-5.3408	ABBOT	-0.2108
-4.7630	ABBOTT	-0.3485
-5.6338	ABBOTT'S	-0.0217
-5.9244	ABBOUD	-0.1442
-5.3408	ABBREVIATED	-0.1330
-5.7151	ABBREVIATION	-0.2622
-5.7553	ABBREVIATIONS	-0.2918
-5.2924	ABBY	-0.1708
-5.6784	ABDALLA	-0.1489
-5.1131	ABDALLAH	-0.2881
-4.4473	ABDEL	-0.8204
-5.9142	ABDICATE	-0.2216
-5.5433	ABDICATED	-0.4675
-5.8849	ABDICATING	-0.2944
-5.6668	ABDICATION	-0.2766
-5.8944	ABDO	-0.0747
-5.7768	ABDOLLAH	-0.3543
-5.3545	ABDOMEN	-0.2477
-5.0535	ABDOMINAL	-0.5092
-5.8849	ABDUCT	-0.1596
-4.8034	ABDUCTED	-0.5068
-5.9913	ABDUCTEES	-0.1665
-5.5433	ABDUCTING	-0.2567
-4.9667	ABDUCTION	-0.3778
-5.2643	ABDUCTIONS	-0.3600
-6.0036	ABDUCTOR	-0.1206
-5.6131	ABDUCTORS	-0.2043
-4.1702	ABDUL	-0.7773
-5.6392	ABDULAZIZ	-0.1586
-5.4141	ABDULLA	-0.2208
-4.2791	ABDULLAH	-0.4876
-4.9974	ABE	-0.2638
-5.1897	ABED	-0.3632
-5.7415	ABEDI	-0.2563
-4.9349	ABEL	-0.2571
-5.4795	ABERCROMBIE	-0.3140
-5.3021	ABERDEEN	-0.2417
-5.4758	ABERNATHY	-0.2357
-5.6131	ABERRANT	-0.1273
-5.5223	ABERRATION	-0.2291
-5.7281	ABERRATIONS	-0.2569
-6.2689	ABET	-0.0406
-5.4438	ABETTED	-0.4308
-5.8487	ABETTING	-0.1245
-6.7025	ABEYANCE	-0.0246
-5.5792	ABHOR	-0.2317
-5.8755	ABHORRED	-0.2305
-5.7842	ABHORRENCE	-0.4822
-5.5983	ABHORRENT	-0.2807
-5.6668	ABHORS	-0.1683
-5.8664	ABID	-0.0778
-5.0648	ABIDE	-0.5573
-5.5520	ABIDED	-1.0737
-5.5390	ABIDES	-0.9020
-5.2338	ABIDING	-0.1706
-5.3687	ABIGAIL	-0.1770
-5.7415	ABILENE	-0.1918
-4.6296	ABILITIES	-0.5717
-3.9705	ABILITY	-0.7942
-5.6668	ABINGTON	-0.3082
-5.2972	ABIOLA	-0.3284
-5.6182	ABIOLA'S	-0.1987
-5.8073	ABIOMED	-0.2076
-5.7623	ABITIBI	-0.2721
-5.4869	ABJECT	-0.2077
-5.3833	ABKHAZIA	-0.2770
-5.4404	ABKHAZIAN	-0.2791
-5.9566	ABKHAZIANS	-0.1282
-5.0563	ABLAZE	-0.4613
-4.3392	ABLE	-0.4916
-5.4109	ABLY	-0.1078
-5.4141	ABNER	-0.3740
-5.9794	ABNEY	-0.1070
-4.9974	ABNORMAL	-0.2402
-5.2466	ABNORMALITIES	-0.4377
-5.5476	ABNORMALITY	-0.3231
-5.3954	ABNORMALLY	-0.3895
-4.0315	ABOARD	-0.6506
-5.5142	ABODE	-0.2197
-5.2805	ABOLISH	-0.1820
-4.9656	ABOLISHED	-0.3505
-5.8574	ABOLISHES	-0.2017
-5.1693	ABOLISHING	-0.3441
-5.2013	ABOLITION	-0.4871
-5.6556	ABOLITIONIST	-0.1630
-5.7695	ABOLITIONISTS	-0.1574
-5.6903	ABOMINABLE	-0.1468
-5.8755	ABOMINATION	-0.1764
-4.8242	ABORIGINAL	-0.3837
-5.7151	ABORIGINE	-0.0822
-5.1310	ABORIGINES	-0.3252
-5.6286	ABORT	-0.2357
-5.0187	ABORTED	-0.2992
-5.7216	ABORTING	-0.3252
-4.3710	ABORTION	-0.5087
-6.2254	ABORTIONIST	-0.1035
-6.0563	ABORTIONISTS	-0.1096
-4.8896	ABORTIONS	-0.5415
-5.4832	ABORTIVE	-0.1670
-5.4577	ABOU	-0.1783
-5.8073	ABOUD	-0.1142
-6.1674	ABOUHALIMA	-0.0535
-4.6686	ABOUND	-0.7216
-5.2466	ABOUNDED	-0.4782
-5.7918	ABOUNDING	-0.2799
-5.1195	ABOUNDS	-0.6682
-3.0351	ABOUT	-0.7658
-3.8174	ABOVE	-0.6179
-6.0852	ABOVEBOARD	-0.1572
-4.5277	ABRAHAM	-0.3606
-5.5142	ABRAHAMS	-0.2950
-5.5934	ABRAM	-0.1422
-5.6964	ABRAMOWITZ	-0.2395
-4.8830	ABRAMS	-0.3919
-5.4507	ABRAMSON	-0.3136
-5.8664	ABRASION	-0.2992
-5.7553	ABRASIONS	-0.3190
-5.3302	ABRASIVE	-0.1280
-6.1327	ABRASIVES	-0.0675
-5.3984	ABREAST	-0.4901
-6.2924	ABREGO	-0.0188
-5.3833	ABREU	-0.2284
-5.7347	ABRIDGED	-0.1345
-5.8755	ABRIL	-0.1223
-4.0594	ABROAD	-0.6614
-6.0425	ABROGATE	-0.1549
-5.8234	ABROGATED	-0.2941
-5.8755	ABROGATION	-0.4676
-5.0384	ABRUPT	-0.2527
-4.4490	ABRUPTLY	-0.4684
-6.1005	ABRUPTNESS	-0.1191
-5.7842	ABS	-0.2330
-6.1859	ABSCESS	-0.1453
-4.3777	ABSENCE	-0.5364
-5.3328	ABSENCES	-0.3712
-4.6674	ABSENT	-0.4140
-4.9062	ABSENTEE	-0.5948
-5.5348	ABSENTEEISM	-0.2712
-5.6843	ABSENTEES	-0.2629
-6.8486	ABSENTIA	0.0000
-5.5063	ABSOLUT	-0.1993
-4.7261	ABSOLUTE	-0.2788
-4.3661	ABSOLUTELY	-0.3925
-5.9456	ABSOLUTES	-0.2029
-5.5654	ABSOLUTION	-0.3301
-5.9456	ABSOLUTIST	-0.0804
-5.8755	ABSOLVE	-0.1665
-5.4946	ABSOLVED	-0.2349
-5.7842	ABSOLVING	-0.1794
-5.0226	ABSORB	-0.2749
-4.6825	ABSORBED	-0.4170
-5.6903	ABSORBENT	-0.1462
-6.2052	ABSORBER	-0.0715
-6.3715	ABSORBERS	-0.0458
-4.8504	ABSORBING	-0.2644
-5.1935	ABSORBS	-0.2629
-5.1147	ABSORPTION	-0.3955
-5.5654	ABSTAIN	-0.4167
-4.9656	ABSTAINED	-0.7606
-5.3803	ABSTAINING	-0.5362
-5.5934	ABSTENTION	-0.2761
-5.7088	ABSTENTIONS	-0.3852
-5.2254	ABSTINENCE	-0.4264
-4.7695	ABSTRACT	-0.2823
-5.7483	ABSTRACTED	-0.0954
-5.2852	ABSTRACTION	-0.3538
-5.3833	ABSTRACTIONS	-0.2903
-5.6964	ABSTRACTS	-0.1890
-5.9349	ABSTRUSE	-0.0210
-4.9679	ABSURD	-0.2353
-5.8152	ABSURDIST	-0.0913
-5.6843	ABSURDITIES	-0.2597
-5.3223	ABSURDITY	-0.3714
-5.4795	ABSURDLY	-0.1110
-5.9042	ABT	-0.1628
-4.1612	ABU	-0.5932
-5.2532	ABUNDANCE	-0.3406
-4.8065	ABUNDANT	-0.3135
-5.5983	ABUNDANTLY	-0.2696
-6.1327	ABURTO	-0.1817
-4.3667	ABUSE	-0.4728
-4.7019	ABUSED	-0.4558
-5.6668	ABUSER	-0.2487
-5.2380	ABUSERS	-0.3461
-4.6328	ABUSES	-0.5395
-5.1099	ABUSING	-0.3116
-4.8435	ABUSIVE	-0.3511
-5.4907	ABUT	-0.2511
-5.8073	ABUTS	-0.1899
-5.5142	ABUTTING	-0.3726
-5.6903	ABUZZ	-0.3711
-5.3545	ABYSMAL	-0.1752
-5.9244	ABYSMALLY	-0.2561
-5.4685	ABYSS	-0.2517
-5.7553	ABZUG	-0.1176
-5.8152	AC	-0.1428
-5.7842	ACACIA	-0.1510
-6.0852	ACADEME	-0.1044
-5.3121	ACADEMIA	-0.2766
-4.2170	ACADEMIC	-0.4847
-5.1067	ACADEMICALLY	-0.3829
-5.4473	ACADEMICIAN	-0.2723
-5.2445	ACADEMICIANS	-0.3929
-4.7158	ACADEMICS	-0.3859
-5.2735	ACADEMIES	-0.3365
-4.3473	ACADEMY	-0.4418
-5.7995	ACADEMY'S	-0.0219
-5.9679	ACADIA	-0.2444
-6.1497	ACAMPORA	-0.0979
-5.4015	ACAPULCO	-0.2013
-5.7553	ACCEDE	-0.5583
-5.4337	ACCEDED	-0.7946
-5.8234	ACCEDING	-0.7983
-6.0162	ACCEL	-0.1740
-6.4015	ACCELERANT	-0.1056
-5.0136	ACCELERATE	-0.2694
-4.6017	ACCELERATED	-0.4154
-5.2193	ACCELERATES	-0.3192
-4.8583	ACCELERATING	-0.3264
-4.9725	ACCELERATION	-0.4576
-5.4141	ACCELERATOR	-0.2117
-4.7209	ACCENT	-0.4334
-5.0549	ACCENTED	-0.3541
-4.9456	ACCENTS	-0.4024
-5.7918	ACCENTUATE	-0.1831
-5.4078	ACCENTUATED	-0.4662
-5.8849	ACCENTUATES	-0.3352
-5.7025	ACCENTUATING	-0.3332
-4.5031	ACCEPT	-0.3151
-5.7768	ACCEPTABILITY	-0.3046
-4.6451	ACCEPTABLE	-0.3255
-4.4151	ACCEPTANCE	-0.7124
-5.7623	ACCEPTANCES	-0.2579
-3.9998	ACCEPTED	-0.5256
-4.5154	ACCEPTING	-0.4071
-4.6344	ACCEPTS	-0.4022
-3.9835	ACCESS	-0.6350
-5.4613	ACCESSED	-0.2853
-5.1878	ACCESSIBILITY	-0.3838
-4.6440	ACCESSIBLE	-0.3731
-5.4141	ACCESSING	-0.2386
-4.9328	ACCESSION	-0.5241
-4.7171	ACCESSORIES	-0.3627
-6.1497	ACCESSORIZE	-0.2132
-5.6446	ACCESSORIZED	-0.4230
-5.1674	ACCESSORY	-0.2482
-4.3718	ACCIDENT	-0.4906
-6.7025	ACCIDENT'S	0.0000
-5.0011	ACCIDENTAL	-0.2604
-4.5357	ACCIDENTALLY	-0.3711
-5.8152	ACCIDENTLY	-0.0200
-4.5640	ACCIDENTS	-0.6408
-5.9913	ACCION	-0.1211
-6.9455	ACCIVAL	0.0000
-5.1567	ACCLAIM	-0.4224
-4.9370	ACCLAIMED	-0.2087
-6.2466	ACCLIMATE	-0.1214
-5.8073	ACCLIMATED	-0.3525
-6.5062	ACCOLA	-0.0603
-5.6182	ACCOLADE	-0.2570
-5.2445	ACCOLADES	-0.3598
-5.2423	ACCOMMODATE	-0.1569
-5.3071	ACCOMMODATED	-0.2789
-5.4238	ACCOMMODATES	-0.2402
-5.0898	ACCOMMODATING	-0.2259
-4.8026	ACCOMMODATION	-0.4732
-4.8209	ACCOMMODATIONS	-0.4756
-6.1674	ACCOMMODATIVE	-0.0971
-4.0256	ACCOMPANIED	-0.5845
-5.1822	ACCOMPANIES	-0.2301
-5.2072	ACCOMPANIMENT	-0.4571
-5.7623	ACCOMPANIMENTS	-0.2872
-5.7995	ACCOMPANIST	-0.1798
-5.1131	ACCOMPANY	-0.1903
-4.5745	ACCOMPANYING	-0.2361
-6.8486	ACCOMPLI	-0.0137
-5.1803	ACCOMPLICE	-0.2179
-5.1083	ACCOMPLICES	-0.3519
-5.1550	ACCOMPLISH	-0.3758
-4.5520	ACCOMPLISHED	-0.3911
-5.3803	ACCOMPLISHES	-0.4377
-5.3687	ACCOMPLISHING	-0.5009
-4.8601	ACCOMPLISHMENT	-0.5234
-4.6612	ACCOMPLISHMENTS	-0.5382
-5.6556	ACCOR	-0.2377
-4.4354	ACCORD	-0.5039
-6.2466	ACCORD'S	-0.0390
-6.1327	ACCORDANCE	-0.3840
-5.0720	ACCORDED	-0.3183
-3.2815	ACCORDING	-1.6490
-4.6167	ACCORDINGLY	-0.3743
-5.2689	ACCORDION	-0.2299
-4.7209	ACCORDS	-0.4626
-5.5265	ACCOSTED	-0.2727
-3.8689	ACCOUNT	-0.5977
-4.7321	ACCOUNTABILITY	-0.5013
-4.8242	ACCOUNTABLE	-0.4919
-5.5348	ACCOUNTANCY	-0.2314
-4.8637	ACCOUNTANT	-0.2932
-6.2052	ACCOUNTANT'S	-0.0319
-4.8619	ACCOUNTANTS	-0.3618
-4.1814	ACCOUNTED	-1.4564
-4.0691	ACCOUNTING	-0.6770
-4.0203	ACCOUNTS	-0.6341
-5.7483	ACCOUTERMENTS	-0.2513
-6.3172	ACCREDIT	-0.0268
-4.9783	ACCREDITATION	-0.4569
-6.0036	ACCREDITATIONS	-0.1913
-5.1377	ACCREDITED	-0.3003
-5.8401	ACCREDITING	-0.2161
-5.9566	ACCRETION	-0.2330
-6.1163	ACCRUAL	-0.1919
-5.5886	ACCRUE	-0.2252
-5.3249	ACCRUED	-0.3262
-6.0425	ACCRUES	-0.1925
-5.6903	ACCRUING	-0.2062
-5.1935	ACCUMULATE	-0.2675
-4.6239	ACCUMULATED	-0.4286
-5.5023	ACCUMULATES	-0.2500
-5.0605	ACCUMULATING	-0.2640
-5.0676	ACCUMULATION	-0.4967
-5.4271	ACCUMULATIONS	-0.4485
-6.2254	ACCUMULATIVE	0.0000
-4.7842	ACCURACY	-0.4501
-4.6674	ACCURATE	-0.3389
-4.7374	ACCURATELY	-0.3402
-4.7044	ACCUSATION	-0.4613
-4.3036	ACCUSATIONS	-0.6808
-5.8664	ACCUSATORY	-0.0681
-4.6467	ACCUSE	-0.3123
-3.7044	ACCUSED	-0.5270
-5.5348	ACCUSER	-0.1773
-5.5023	ACCUSERS	-0.2200
-4.5963	ACCUSES	-0.3089
-4.1374	ACCUSING	-0.5295
-4.8358	ACCUSTOMED	-0.6271
-5.8944	ACCUTANE	-0.1440
-4.4795	ACE	-0.3450
-5.4758	ACED	-0.4302
-5.3328	ACER	-0.2401
-5.4577	ACERBIC	-0.0716
-6.2924	ACERO	-0.0890
-5.0605	ACES	-0.4372
-5.6500	ACETAMINOPHEN	-0.2176
-5.7768	ACETATE	-0.0950
-5.9679	ACETIC	-0.6909
-5.9244	ACETONE	-0.1318
-6.1674	ACETYLENE	-0.0999
-5.3630	ACEVEDO	-0.2253
-5.3517	ACHE	-0.3609
-6.1327	ACHEBE	-0.0577
-5.2758	ACHES	-0.4521
-5.8152	ACHESON	-0.0979
-5.5023	ACHIEVABLE	-0.2728
-4.6814	ACHIEVE	-0.3706
-4.2779	ACHIEVED	-0.5988
-4.4710	ACHIEVEMENT	-0.5770
-4.4418	ACHIEVEMENTS	-0.6449
-5.9566	ACHIEVER	-0.1543
-5.6182	ACHIEVERS	-0.1926
-4.9854	ACHIEVES	-0.3591
-4.7956	ACHIEVING	-0.4144
-5.8574	ACHILLE	-0.4599
-5.3198	ACHILLES	-0.3314
-5.4404	ACHILLES'	-0.5813
-5.1514	ACHING	-0.2618
-5.7415	ACHTENBERG	-0.1916
-5.7995	ACHY	-0.3498
-4.6544	ACID	-0.3645
-5.3923	ACIDIC	-0.1685
-5.4795	ACIDITY	-0.3605
-5.8574	ACIDLY	-0.1338
-5.5839	ACIDS	-0.1777
-6.0563	ACK	-0.1269
-5.7623	ACKER	-0.2276
-5.9349	ACKERLEY	-0.1112
-5.0086	ACKERMAN	-0.3336
-5.7088	ACKERMANN	-0.1590
-6.2254	ACKLES	-0.1737
-4.6056	ACKNOWLEDGE	-0.4670
-3.7377	ACKNOWLEDGED	-0.7405
-5.2338	ACKNOWLEDGEMENT	-0.5905
-4.3129	ACKNOWLEDGES	-0.6466
-4.6451	ACKNOWLEDGING	-0.5172
-5.0086	ACKNOWLEDGMENT	-0.6429
-5.9244	ACKROYD	-0.0752
-5.6338	ACME	-0.0734
-5.4015	ACNE	-0.2674
-5.0793	ACOG	-0.2892
-5.8401	ACOLYTE	-0.1933
-5.6446	ACOLYTES	-0.2279
-5.4758	ACORN	-0.1783
-5.7281	ACORNS	-0.1577
-5.0662	ACOSTA	-0.3092
-4.8935	ACOUSTIC	-0.2856
-5.6500	ACOUSTICAL	-0.0580
-5.9042	ACOUSTICALLY	-0.0510
-5.3147	ACOUSTICS	-0.2762
-6.0425	ACQUAINT	-0.1986
-5.2112	ACQUAINTANCE	-0.3201
-5.1228	ACQUAINTANCES	-0.3513
-5.4304	ACQUAINTED	-0.3770
-5.9244	ACQUIESCE	-0.3444
-5.5348	ACQUIESCED	-0.5527
-5.4685	ACQUIESCENCE	-0.4327
-5.9244	ACQUIESCING	-0.5312
-4.8954	ACQUIRE	-0.1317
-4.0868	ACQUIRED	-0.4384
-5.9794	ACQUIRER	-0.1701
-5.9244	ACQUIRERS	-0.2358
-5.2359	ACQUIRES	-0.2793
-4.7850	ACQUIRING	-0.2290
-4.2926	ACQUISITION	-0.4612
-4.6495	ACQUISITIONS	-0.4550
-5.8234	ACQUISITIVE	-0.0374
-5.8574	ACQUIT	-0.1168
-6.1674	ACQUITS	-0.1440
-5.0943	ACQUITTAL	-0.4094
-5.6668	ACQUITTALS	-0.2486
-4.9656	ACQUITTED	-0.3654
-5.8849	ACQUITTING	-0.1581
-5.4109	ACRE	-0.2580
-4.9771	ACREAGE	-0.4678
-4.8858	ACRES	-0.4829
-6.2052	ACRI	-0.0460
-5.6843	ACRID	-0.2237
-5.4173	ACRIMONIOUS	-0.1833
-5.4271	ACRIMONY	-0.3223
-5.6612	ACROBAT	-0.1849
-5.1147	ACROBATIC	-0.1715
-5.2213	ACROBATICS	-0.2848
-5.4141	ACROBATS	-0.2253
-5.3517	ACRONYM	-0.1248
-5.6726	ACRONYMS	-0.2190
-5.7918	ACROPOLIS	-0.1500
-3.5056	ACROSS	-0.9023
-5.2621	ACRYLIC	-0.2660
-5.9566	ACRYLICS	-0.1017
-3.8998	ACT	-0.6454
-5.6286	ACT'S	-0.0453
-4.2219	ACTED	-0.7631
-3.8683	ACTING	-0.6789
-3.8128	ACTION	-0.6329
-6.0852	ACTION'S	-0.0062
-5.9679	ACTIONABLE	-0.1052
-4.0118	ACTIONS	-0.7053
-6.1497	ACTIVASE	-0.1581
-5.4613	ACTIVATE	-0.1505
-4.7483	ACTIVATED	-0.3373
-5.7695	ACTIVATES	-0.2671
-5.4542	ACTIVATING	-0.2194
-5.4238	ACTIVATION	-0.3011
-4.2628	ACTIVE	-0.4052
-4.5820	ACTIVELY	-0.4269
-6.2254	ACTIVES	-0.2152
-5.8073	ACTIVISION	-0.1813
-5.0291	ACTIVISM	-0.4300
-4.5122	ACTIVIST	-0.3198
-4.3109	ACTIVISTS	-0.6276
-5.8755	ACTIVISTS'	-0.0181
-3.8692	ACTIVITIES	-0.7793
-4.0931	ACTIVITY	-0.6267
-5.4946	ACTON	-0.1977
-4.2953	ACTOR	-0.4725
-5.4109	ACTOR'S	-0.0515
-4.3582	ACTORS	-0.4800
-5.4613	ACTORS'	-0.1376
-4.4532	ACTRESS	-0.4204
-6.4337	ACTRESS'S	0.0000
-4.9679	ACTRESSES	-0.3121
-4.0982	ACTS	-0.6649
-4.4946	ACTUAL	-0.2327
-6.3172	ACTUALITY	-0.0698
-3.8066	ACTUALLY	-0.4734
-5.6843	ACTUARIAL	-0.1637
-5.7553	ACTUARIES	-0.1922
-5.9456	ACTUARY	-0.1127
-5.8755	ACUFF	-0.1304
-5.7995	ACUITY	-0.2552
-5.4507	ACUMEN	-0.3059
-5.5609	ACUNA	-0.1668
-5.1428	ACUPUNCTURE	-0.3193
-5.3630	ACURA	-0.2768
-4.8700	ACUTE	-0.3378
-5.3517	ACUTELY	-0.3426
-4.1430	AD	-0.4909
-6.4015	AD'S	-0.0084
-5.2092	ADA	-0.1295
-5.8487	ADACHI	-0.1266
-5.5520	ADAGE	-0.1933
-5.8234	ADAGIO	-0.2135
-5.3833	ADAIR	-0.2197
-6.2924	ADAK	-0.0945
-4.2521	ADAM	-0.3990
-5.3435	ADAM'S	-0.1129
-5.3435	ADAMANT	-0.3662
-5.0162	ADAMANTLY	-0.5297
-6.0705	ADAMI	-0.0834
-5.5390	ADAMKUS	-0.1929
-4.2187	ADAMS	-0.4620
-5.1550	ADAMS'	-0.1088
-5.8664	ADAMS'S	-0.0186
-5.4078	ADAMSON	-0.2629
-5.3716	ADAN	-0.2488
-5.0507	ADAPT	-0.3849
-5.5886	ADAPTABILITY	-0.3493
-5.4438	ADAPTABLE	-0.2806
-4.6921	ADAPTATION	-0.5998
-5.2402	ADAPTATIONS	-0.4280
-6.0036	ADAPTEC	-0.2034
-4.6578	ADAPTED	-0.5919
-5.5654	ADAPTER	-0.2286
-5.6500	ADAPTERS	-0.2894
-5.1327	ADAPTING	-0.3580
-5.4907	ADAPTIVE	-0.1764
-5.4869	ADAPTS	-0.3470
-6.0563	ADARAND	-0.1635
-5.9142	ADCOCK	-0.1435
-4.1610	ADD	-0.3623
-5.9566	ADDAMS	-0.2470
-3.2305	ADDED	-0.6988
-5.9566	ADDENDUM	-0.1569
-6.3172	ADDERLEY	-0.0541
-5.2805	ADDICT	-0.2482
-5.0011	ADDICTED	-0.3059
-5.8664	ADDICTING	-0.0832
-4.8153	ADDICTION	-0.4062
-5.4438	ADDICTIONS	-0.3199
-5.2254	ADDICTIVE	-0.2784
-4.8539	ADDICTS	-0.3610
-5.6234	ADDIE	-0.1446
-3.5802	ADDING	-0.7147
-6.1005	ADDINGTON	-0.0480
-5.2852	ADDIS	-0.4348
-5.3275	ADDISON	-0.2609
-4.6837	ADDITION	-0.0777
-4.1968	ADDITIONAL	-0.4795
-5.5745	ADDITIONALLY	-0.0131
-4.9102	ADDITIONS	-0.4257
-5.3984	ADDITIVE	-0.2748
-5.2689	ADDITIVES	-0.3827
-5.5654	ADDLED	-0.0390
-4.2160	ADDRESS	-0.4383
-4.2425	ADDRESSED	-0.5664
-4.4677	ADDRESSES	-0.5012
-4.4747	ADDRESSING	-0.4045
-4.0153	ADDS	-0.4250
-5.6392	ADE	-0.0946
-5.1674	ADEL	-0.2812
-5.8849	ADELA	-0.0804
-5.2052	ADELAIDE	-0.2066
-5.4649	ADELE	-0.0732
-5.2510	ADELMAN	-0.2552
-5.3923	ADELPHIA	-0.2779
-6.0563	ADELPHIA'S	-0.0461
-5.9244	ADELSON	-0.1870
-5.2689	ADEN	-0.2088
-6.1327	ADENAUER	-0.0477
-5.2112	ADEPT	-0.3187
-5.8664	ADEQUACY	-0.1918
-4.6408	ADEQUATE	-0.4255
-4.8089	ADEQUATELY	-0.3087
-5.8152	ADER	-0.3012
-5.8944	ADES	-0.1244
-4.9842	ADHERE	-0.7315
-5.1840	ADHERED	-0.9976
-4.8793	ADHERENCE	-1.0503
-5.8849	ADHERENT	-0.3572
-5.2234	ADHERENTS	-0.3557
-5.1784	ADHERES	-0.9662
-5.1674	ADHERING	-0.8243
-5.3355	ADHESIVE	-0.2413
-5.6338	ADHESIVES	-0.1989
-5.8234	ADIA	-0.2200
-5.1480	ADIDAS	-0.2174
-5.8234	ADIEU	-0.2018
-5.8316	ADIOS	-0.1559
-5.4542	ADIRONDACK	-0.1690
-4.6137	ADJACENT	-0.2561
-6.5934	ADJANI	-0.0206
-5.4984	ADJECTIVE	-0.1595
-5.3601	ADJECTIVES	-0.2981
-5.0734	ADJOINING	-0.1349
-5.9042	ADJOINS	-0.1655
-5.8755	ADJOURN	-0.2563
-4.9022	ADJOURNED	-0.6324
-5.8664	ADJOURNING	-0.2328
-5.5102	ADJOURNMENT	-0.3218
-6.0291	ADJOURNS	-0.2275
-5.7483	ADJUDGED	-0.2825
-6.1859	ADJUDICATE	-0.1186
-5.9456	ADJUDICATED	-0.1989
-6.0852	ADJUDICATING	-0.1076
-5.6784	ADJUDICATION	-0.2364
-5.4404	ADJUNCT	-0.3043
-5.9244	ADJUNCTS	-0.1799
-4.8746	ADJUST	-0.3484
-5.3071	ADJUSTABLE	-0.2062
-4.5953	ADJUSTED	-0.4457
-6.0425	ADJUSTER	-0.0935
-5.9794	ADJUSTERS	-0.1163
-4.8601	ADJUSTING	-0.4224
-4.6344	ADJUSTMENT	-0.5267
-4.7183	ADJUSTMENTS	-0.5897
-5.2876	ADJUSTS	-0.4053
-5.7216	ADJUTANT	-0.3322
-5.2445	ADKINS	-0.2523
-6.1327	ADKINSON	-0.1485
-5.6338	ADLAI	-0.8019
-4.9500	ADLER	-0.3643
-5.2666	ADMINISTER	-0.1915
-4.6539	ADMINISTERED	-0.4142
-5.1343	ADMINISTERING	-0.2887
-5.3863	ADMINISTERS	-0.1967
-5.8849	ADMINISTRATING	-0.1403
-3.9783	ADMINISTRATION	-0.5576
-5.2072	ADMINISTRATION'S	-0.1975
-4.9328	ADMINISTRATIONS	-0.4500
-4.2138	ADMINISTRATIVE	-0.6701
-5.6286	ADMINISTRATIVELY	-0.1354
-4.4836	ADMINISTRATOR	-0.4338
-4.5256	ADMINISTRATORS	-0.4499
-5.1916	ADMIRABLE	-0.1441
-5.3249	ADMIRABLY	-0.1533
-4.8128	ADMIRAL	-0.3225
-5.8234	ADMIRAL'S	-0.1802
-5.5520	ADMIRALS	-0.1582
-5.9042	ADMIRALTY	-0.1807
-4.9667	ADMIRATION	-0.5635
-5.1480	ADMIRE	-0.2789
-4.8821	ADMIRED	-0.2807
-5.3355	ADMIRER	-0.2847
-4.9359	ADMIRERS	-0.3729
-5.1993	ADMIRES	-0.1996
-5.0466	ADMIRING	-0.2389
-5.6843	ADMIRINGLY	-0.2916
-6.1327	ADMISSIBILITY	-0.1494
-5.6726	ADMISSIBLE	-0.3712
-4.4235	ADMISSION	-0.5961
-4.7216	ADMISSIONS	-0.4952
-4.6096	ADMIT	-0.4689
-4.1094	ADMITS	-0.6687
-5.5520	ADMITTANCE	-0.3871
-3.7149	ADMITTED	-0.7569
-5.0061	ADMITTEDLY	-0.1433
-4.6726	ADMITTING	-0.5256
-5.9456	ADMONISH	-0.1256
-5.1260	ADMONISHED	-0.3068
-5.7088	ADMONISHES	-0.2049
-5.6182	ADMONISHING	-0.1874
-5.8944	ADMONISHMENT	-0.1950
-5.3328	ADMONITION	-0.4032
-5.5564	ADMONITIONS	-0.2896
-5.1514	ADNAN	-0.2516
-5.8487	ADO	-0.0962
-4.9771	ADOBE	-0.3054
-5.6903	ADOBE'S	-0.0383
-5.2193	ADOLESCENCE	-0.3200
-4.8185	ADOLESCENT	-0.2034
-5.0226	ADOLESCENTS	-0.3631
-4.9359	ADOLF	-0.5985
-5.2828	ADOLFO	-0.2371
-5.4015	ADOLPH	-0.3684
-4.7216	ADOPT	-0.3130
-4.1528	ADOPTED	-0.6006
-5.5433	ADOPTEES	-0.2640
-4.7652	ADOPTING	-0.3647
-4.5533	ADOPTION	-0.4709
-5.1480	ADOPTIONS	-0.4249
-5.2510	ADOPTIVE	-0.5689
-4.9986	ADOPTS	-0.3929
-5.3658	ADORABLE	-0.1461
-5.4238	ADORATION	-0.3946
-5.4438	ADORE	-0.2353
-5.1935	ADORED	-0.2952
-5.6032	ADORES	-0.1796
-5.3021	ADORING	-0.1906
-5.2112	ADORN	-0.3610
-4.7790	ADORNED	-0.5985
-5.8664	ADORNMENT	-0.1761
-6.0425	ADORNO	-0.1069
-5.5023	ADORNS	-0.4133
-5.9244	ADRENAL	-0.2296
-5.6964	ADRENALIN	-0.1724
-5.2112	ADRENALINE	-0.2874
-5.9913	ADRIA	-0.1063
-4.5357	ADRIAN	-0.3737
-5.2666	ADRIANA	-0.2166
-5.3954	ADRIANO	-0.2425
-5.4946	ADRIATIC	-0.1915
-5.3923	ADRIENNE	-0.1422
-5.1005	ADRIFT	-0.5572
-5.6286	ADROIT	-0.1077
-5.6612	ADROITLY	-0.0258
-4.2464	ADS	-0.5786
-5.4577	ADULATION	-0.3097
-4.3167	ADULT	-0.3456
-5.7025	ADULTERATED	-0.2475
-6.0036	ADULTERER	-0.1648
-5.8152	ADULTERERS	-0.2220
-5.6182	ADULTEROUS	-0.2069
-5.1020	ADULTERY	-0.3284
-5.4542	ADULTHOOD	-0.2661
-4.4394	ADULTS	-0.5136
-5.9244	ADULTS'	-0.0281
-4.2019	ADVANCE	-0.5003
-3.9664	ADVANCED	-0.6137
-4.9842	ADVANCEMENT	-0.4840
-5.4685	ADVANCEMENTS	-0.3421
-6.2689	ADVANCER	-0.0827
-5.5654	ADVANCERS	-0.3657
-4.3736	ADVANCES	-0.6402
-4.5533	ADVANCING	-0.4689
-5.7216	ADVANTA	-0.1783
-4.3395	ADVANTAGE	-0.6034
-6.0036	ADVANTAGED	-0.0726
-5.3630	ADVANTAGEOUS	-0.2632
-4.6612	ADVANTAGES	-0.6069
-6.1859	ADVANTEST	-0.2051
-5.5745	ADVENT	-0.2678
-6.0162	ADVENTIST	-0.1135
-6.4337	ADVENTISTS	-0.0143
-4.4012	ADVENTURE	-0.4588
-5.2948	ADVENTURER	-0.2318
-5.2423	ADVENTURERS	-0.2444
-4.6328	ADVENTURES	-0.5382
-5.8574	ADVENTURESOME	-0.0440
-5.7695	ADVENTURISM	-0.3165
-5.1585	ADVENTUROUS	-0.1325
-5.4685	ADVERSARIAL	-0.1798
-4.9771	ADVERSARIES	-0.4347
-5.1277	ADVERSARY	-0.3281
-4.8367	ADVERSE	-0.5481
-5.0749	ADVERSELY	-0.7091
-5.1343	ADVERSITY	-0.3836
-5.1532	ADVERTISE	-0.2683
-4.8041	ADVERTISED	-0.3858
-4.7354	ADVERTISEMENT	-0.3607
-4.5472	ADVERTISEMENTS	-0.5045
-5.2828	ADVERTISER	-0.2480
-4.6709	ADVERTISERS	-0.4572
-5.8849	ADVERTISERS'	-0.0439
-5.2689	ADVERTISES	-0.3128
-4.0101	ADVERTISING	-0.6002
-6.1674	ADVEST	-0.2885
-4.1810	ADVICE	-0.6391
-5.7025	ADVIL	-0.2658
-5.8073	ADVISABLE	-0.3363
-4.8944	ADVISE	-0.3010
-4.2888	ADVISED	-0.3783
-6.5934	ADVISEMENT	-0.0279
-4.4125	ADVISER	-0.4182
-6.0852	ADVISER'S	-0.0568
-4.4885	ADVISERS	-0.5174
-6.0852	ADVISERS'	-0.0115
-4.6086	ADVISES	-0.2747
-4.6970	ADVISING	-0.3565
-4.7442	ADVISOR	-0.3701
-5.4438	ADVISORIES	-0.3137
-4.9926	ADVISORS	-0.4239
-4.4507	ADVISORY	-0.6586
-4.6106	ADVOCACY	-0.6761
-4.5240	ADVOCATE	-0.3361
-6.2924	ADVOCATE'S	-0.0596
-4.6595	ADVOCATED	-0.3415
-4.3213	ADVOCATES	-0.5086
-4.8081	ADVOCATING	-0.3040
-6.0852	ADWEEK	-0.1511
-5.7281	AE	-0.0471
-5.4404	AEGEAN	-0.2282
-5.3463	AEGIS	-0.3578
-5.7216	AEGON	-0.2070
-6.4337	AELTUS	-0.2848
-5.6556	AENEAS	-0.3560
-5.5839	AER	-1.0504
-4.7032	AERIAL	-0.4237
-5.2445	AERO	-0.2518
-5.7623	AEROBATIC	-0.2833
-5.7768	AEROBATICS	-0.1122
-5.3435	AEROBIC	-0.3484
-5.1711	AEROBICS	-0.3231
-5.3021	AERODYNAMIC	-0.1696
-5.6234	AERODYNAMICS	-0.2236
-5.4869	AEROFLOT	-0.2282
-5.8401	AEROLINEAS	-0.1942
-5.5983	AEROMEXICO	-0.1304
-6.0162	AERONAUTIC	-0.0922
-5.4907	AERONAUTICAL	-0.2411
-7.2897	AERONAUTICAS	0.0000
-5.4685	AERONAUTICS	-0.2266
-5.3954	AEROSMITH	-0.1846
-6.0291	AEROSMITH'S	-0.1162
-5.5223	AEROSOL	-0.1502
-5.8755	AEROSOLS	-0.1642
-4.6867	AEROSPACE	-0.4282
-5.3954	AEROSPATIALE	-0.3645
-6.2052	AEROSTAR	-0.0560
-4.9162	AESTHETIC	-0.2327
-5.5886	AESTHETICALLY	-0.1997
-5.3545	AESTHETICS	-0.2826
-5.0591	AETNA	-0.3238
-5.6338	AETNA'S	-0.1211
-5.9794	AFANASYEV	-0.1378
-5.7483	AFAR	-0.1159
-5.3490	AFFABLE	-0.0910
-4.2590	AFFAIR	-0.5256
-4.3036	AFFAIRS	-0.4621
-4.4631	AFFECT	-0.3712
-5.8487	AFFECTATION	-0.2050
-4.2140	AFFECTED	-0.4856
-4.3932	AFFECTING	-0.4358
-4.7925	AFFECTION	-0.4938
-5.2296	AFFECTIONATE	-0.1443
-5.1195	AFFECTIONATELY	-0.4149
-5.4371	AFFECTIONS	-0.3685
-6.0705	AFFECTIVE	-0.1794
-4.4821	AFFECTS	-0.4243
-5.1620	AFFIDAVIT	-0.3022
-5.3545	AFFIDAVITS	-0.3446
-4.7235	AFFILIATE	-0.3270
-4.5731	AFFILIATED	-0.4280
-4.8655	AFFILIATES	-0.4123
-5.0764	AFFILIATION	-0.3645
-5.3774	AFFILIATIONS	-0.3516
-5.8316	AFFINITIES	-0.1682
-5.1228	AFFINITY	-0.5452
-5.4141	AFFIRM	-0.2843
-5.2234	AFFIRMATION	-0.5392
-5.9456	AFFIRMATIONS	-0.2626
-4.6333	AFFIRMATIVE	-0.7176
-5.8316	AFFIRMATIVELY	-0.1220
-4.5992	AFFIRMED	-0.5862
-5.1067	AFFIRMING	-0.3373
-5.2666	AFFIRMS	-0.4578
-5.9913	AFFIX	-0.1670
-5.2621	AFFIXED	-0.5523
-6.0162	AFFIXING	-0.1375
-5.2735	AFFLECK	-0.1937
-5.7483	AFFLICT	-0.1282
-5.0073	AFFLICTED	-0.3253
-5.2828	AFFLICTING	-0.2583
-5.3046	AFFLICTION	-0.3180
-5.6338	AFFLICTIONS	-0.2667
-5.5223	AFFLICTS	-0.2577
-5.3249	AFFLUENCE	-0.2956
-4.9725	AFFLUENT	-0.2846
-5.0358	AFFORD	-0.2737
-5.4907	AFFORDABILITY	-0.2672
-4.7044	AFFORDABLE	-0.3573
-5.0200	AFFORDED	-0.3877
-5.4721	AFFORDING	-0.2153
-5.1784	AFFORDS	-0.3197
-5.5476	AFFRONT	-0.3856
-4.3724	AFGHAN	-0.5282
-5.5745	AFGHANI	-0.1156
-5.7995	AFGHANIS	-0.1746
-4.4532	AFGHANISTAN	-0.3996
-4.6381	AFGHANISTAN'S	-0.4589
-4.7857	AFGHANS	-0.4123
-5.3774	AFICIONADO	-0.2445
-4.9771	AFICIONADOS	-0.3592
-5.8574	AFIELD	-0.1476
-5.4907	AFIRE	-0.2752
-5.6234	AFLAME	-0.3672
-6.1327	AFLATOXIN	-0.2580
-4.8802	AFLOAT	-0.5340
-5.6612	AFONSO	-0.2359
-5.4795	AFOOT	-0.4357
-6.0425	AFOREMENTIONED	-0.0089
-6.1497	AFOUL	-0.3299
-4.7075	AFRAID	-0.5489
-5.6131	AFRESH	-0.2764
-4.3333	AFRICA	-0.3060
-4.6976	AFRICA'S	-0.2128
-4.0203	AFRICAN	-0.4736
-6.6445	AFRICANIST	0.0000
-5.9679	AFRICANIZED	-0.3106
-4.8610	AFRICANS	-0.2950
-5.5183	AFRIKAANS	-0.2643
-5.4271	AFRIKANER	-0.1650
-5.5476	AFRIKANERS	-0.3000
-5.0318	AFRO	-0.4551
-5.5792	AFT	-0.1479
-3.0086	AFTER	-0.8558
-5.8664	AFTEREFFECTS	-0.2663
-5.7281	AFTERGLOW	-0.2648
-5.6556	AFTERLIFE	-0.1469
-5.7695	AFTERMARKET	-0.1237
-5.1083	AFTERMATH	-0.3131
-4.4652	AFTERNOON	-0.3098
-6.0425	AFTERNOON'S	-0.0772
-5.3249	AFTERNOONS	-0.3328
-5.5745	AFTERSHOCK	-0.2705
-5.2338	AFTERSHOCKS	-0.4946
-5.6726	AFTERTASTE	-0.3360
-5.6843	AFTERTHOUGHT	-0.1353
-4.2756	AFTERWARD	-0.3551
-4.5949	AFTERWARDS	-0.3717
-6.2466	AFULA	-0.1491
-5.5792	AG	-0.0791
-5.6032	AGA	-0.3085
-3.4303	AGAIN	-0.6844
-3.3403	AGAINST	-0.7432
-6.0563	AGAPE	-0.1498
-5.7995	AGAR	-0.1293
-5.7918	AGARWAL	-0.1930
-4.4616	AGASSI	-0.4354
-5.7695	AGATE	-0.1172
-5.6182	AGATHA	-0.4057
-6.2254	AGCO	-0.1036
-4.0233	AGE	-0.4236
-4.4012	AGED	-0.4115
-5.7415	AGEE	-0.1835
-5.7151	AGELESS	-0.0495
-5.1020	AGENCE	-0.9775
-4.3164	AGENCIES	-0.5886
-5.6392	AGENCIES'	-0.0779
-4.0752	AGENCY	-0.4913
-5.1211	AGENCY'S	-0.1345
-4.2319	AGENDA	-0.6238
-5.0480	AGENDAS	-0.4596
-4.0631	AGENT	-0.4519
-5.6784	AGENT'S	-0.0622
-4.1624	AGENTS	-0.5543
-5.5934	AGENTS'	-0.0460
-6.1674	AGER	-0.0025
-6.3435	AGERS	-0.0052
-7.1677	AGERS'	0.0000
-4.6478	AGES	-0.4997
-5.7842	AGFA	-0.1624
-6.0036	AGGARWAL	-0.0798
-5.6556	AGGIE	-0.0781
-5.3745	AGGIES	-0.1195
-6.2689	AGGRANDIZEMENT	-0.1187
-6.6445	AGGRANDIZING	-0.0085
-5.5564	AGGRAVATE	-0.2521
-4.6885	AGGRAVATED	-0.5092
-5.7553	AGGRAVATES	-0.2458
-5.0974	AGGRAVATING	-0.3340
-5.5223	AGGRAVATION	-0.3893
-5.0291	AGGREGATE	-0.2650
-5.7553	AGGREGATED	-0.0799
-5.7415	AGGREGATES	-0.1354
-4.6076	AGGRESSION	-0.5148
-5.4015	AGGRESSIONS	-0.4071
-4.3009	AGGRESSIVE	-0.3713
-4.5420	AGGRESSIVELY	-0.3615
-5.0838	AGGRESSIVENESS	-0.4000
-5.5886	AGGRESSOR	-0.1736
-5.4404	AGGRESSORS	-0.2826
-5.4015	AGGRIEVED	-0.1898
-5.4613	AGHAST	-0.4035
-6.4015	AGHAZADEH	-0.0811
-5.3381	AGILE	-0.1304
-5.2317	AGILITY	-0.3256
-4.5134	AGING	-0.2417
-5.6338	AGIP	-0.2521
-5.9566	AGITATE	-0.2107
-5.1693	AGITATED	-0.2474
-5.5476	AGITATING	-0.3647
-5.1711	AGITATION	-0.4360
-5.8316	AGITATOR	-0.2099
-5.5609	AGITATORS	-0.2859
-5.7151	AGLOW	-0.4187
-5.2554	AGNELLI	-0.3029
-6.1674	AGNELLO	-0.0560
-5.0278	AGNES	-0.2221
-5.5183	AGNEW	-0.2148
-6.0705	AGNOS	-0.1211
-5.7216	AGNOSTIC	-0.1768
-5.0048	AGO	-0.1434
-5.9349	AGOG	-0.3576
-5.8664	AGONIES	-0.2411
-5.7768	AGONIZE	-0.4772
-5.3381	AGONIZED	-0.2758
-5.1567	AGONIZING	-0.2229
-5.6500	AGONIZINGLY	-0.2441
-5.0868	AGONY	-0.4003
-5.9913	AGORA	-0.0676
-5.9142	AGOSTINO	-0.0643
-6.0036	AGOSTO	-0.0938
-5.9142	AGOURA	-0.3232
-5.9794	AGOURON	-0.1683
-5.7695	AGRA	-0.1563
-5.1005	AGRARIAN	-0.3135
-4.2412	AGREE	-0.7768
-5.4109	AGREEABLE	-0.1704
-3.5185	AGREED	-1.0468
-4.4706	AGREEING	-1.0054
-3.9502	AGREEMENT	-0.6523
-6.0852	AGREEMENT'S	-0.0518
-4.2646	AGREEMENTS	-0.6913
-4.1464	AGREES	-0.8792
-5.4685	AGRI	-0.2506
-5.2852	AGRIBUSINESS	-0.2441
-6.0705	AGRICOLA	-0.1311
-6.4337	AGRICOLE	-0.0138
-4.1091	AGRICULTURAL	-0.7572
-6.1005	AGRICULTURALLY	-0.1929
-4.1347	AGRICULTURE	-0.5416
-5.9244	AGRICULTURE'S	-0.0316
-4.8858	AGRO	-0.5438
-5.9456	AGROCHEMICAL	-0.1442
-6.0162	AGROCHEMICALS	-0.1291
-5.6612	AGRONOMIST	-0.1611
-5.6612	AGRONOMISTS	-0.2811
-5.9244	AGROUND	-0.1922
-5.6286	AGUA	-0.3118
-5.8944	AGUAYO	-0.1837
-5.7768	AGUIAR	-0.1653
-5.9679	AGUILA	-0.1538
-5.1052	AGUILAR	-0.2974
-5.2254	AGUILERA	-0.2042
-6.0291	AGUINAGA	-0.0706
-5.0344	AGUIRRE	-0.3056
-5.1784	AGUSTIN	-0.2543
-4.8201	AH	-0.1937
-5.8234	AHA	-0.1945
-5.8574	AHAB	-0.1178
-5.6784	AHARON	-0.1651
-3.7390	AHEAD	-0.7922
-5.7216	AHEARN	-0.2839
-4.9234	AHERN	-0.3258
-6.2254	AHH	-0.0788
-4.3951	AHMAD	-0.3742
-5.7695	AHMADI	-0.1721
-6.1163	AHMANN	-0.1321
-5.6843	AHMANSON	-0.1477
-4.2495	AHMED	-0.4116
-5.1993	AHN	-0.2869
-5.7918	AHO	-0.1851
-5.5433	AHOLD	-0.2159
-5.8755	AHONEN	-0.1395
-5.5699	AHRENS	-0.2063
-5.1935	AI	-0.2296
-5.8944	AICHI	-0.2945
-4.0158	AID	-0.6444
-5.9349	AID'S	0.0000
-5.1711	AIDA	-0.2361
-5.4946	AIDAN	-0.3005
-4.4641	AIDE	-0.3835
-6.1005	AIDE'S	-0.0095
-4.4728	AIDED	-0.4524
-4.2447	AIDES	-0.5714
-5.1747	AIDID	-0.3179
-5.4304	AIDID'S	-0.3477
-4.9889	AIDING	-0.2664
-4.1610	AIDS	-0.5568
-5.5609	AIELLO	-0.2548
-5.5390	AIGNER	-0.2497
-5.5654	AIKEN	-0.2238
-4.6484	AIKMAN	-0.3546
-5.9244	AILEEN	-0.0356
-5.8755	AILES	-0.1692
-5.8234	AILEY	-0.1012
-4.6940	AILING	-0.2670
-5.1260	AILMENT	-0.3884
-4.9544	AILMENTS	-0.4826
-6.4015	AILS	-0.0703
-4.3587	AIM	-0.6625
-5.7623	AIME	-0.2437
-3.9722	AIMED	-1.0853
-5.5265	AIMEE	-0.2086
-4.3905	AIMING	-0.9375
-5.5745	AIMLESS	-0.0851
-5.4577	AIMLESSLY	-0.2440
-4.1846	AIMS	-0.9730
-4.8275	AIN'T	-0.3471
-5.4078	AINGE	-0.2078
-6.2052	AINSLIE	-0.1018
-5.8849	AINSWORTH	-0.2270
-6.0162	AIPAC	-0.0570
-3.6415	AIR	-0.6583
-5.8316	AIR'S	-0.0493
-5.6964	AIRBAG	-0.0921
-5.4685	AIRBAGS	-0.3048
-5.2852	AIRBASE	-0.4148
-4.7761	AIRBORNE	-0.3037
-4.6629	AIRBUS	-0.4689
-5.9566	AIRBUS'S	-0.0187
-4.1088	AIRCRAFT	-0.6504
-5.8152	AIRCRAFT'S	-0.0196
-5.4238	AIRCRAFTS	-0.3290
-6.1163	AIRCREW	-0.0645
-5.9679	AIRDROP	-0.1674
-5.7553	AIRDROPS	-0.2812
-4.6500	AIRED	-0.5755
-6.0852	AIRES	-0.0049
-5.4721	AIRFARE	-0.3428
-5.5142	AIRFARES	-0.3250
-4.9771	AIRFIELD	-0.3871
-5.2828	AIRFIELDS	-0.3882
-5.8316	AIRFLOW	-0.1322
-5.4238	AIRFORCE	-0.2223
-5.8234	AIRFRAME	-0.1174
-5.9679	AIRFREIGHT	-0.0829
-5.9142	AIRHEAD	-0.0796
-4.7588	AIRING	-0.5118
-5.8755	AIRLESS	-0.0794
-5.1532	AIRLIFT	-0.2882
-5.4078	AIRLIFTED	-0.3385
-5.7695	AIRLIFTING	-0.2341
-5.7216	AIRLIFTS	-0.3164
-4.2189	AIRLINE	-0.4863
-5.3893	AIRLINE'S	-0.0613
-4.9938	AIRLINER	-0.4474
-6.3715	AIRLINER'S	-0.0137
-5.1327	AIRLINERS	-0.3956
-4.2975	AIRLINES	-0.5746
-5.2876	AIRLINES'	-0.1573
-6.0162	AIRLOCK	-0.1638
-5.9679	AIRMAIL	-0.0724
-5.5265	AIRMAN	-0.1974
-5.4109	AIRMEN	-0.2967
-4.5134	AIRPLANE	-0.3973
-6.3715	AIRPLANE'S	-0.0192
-4.6307	AIRPLANES	-0.4974
-3.9059	AIRPORT	-0.6119
-5.4649	AIRPORT'S	-0.0774
-4.4813	AIRPORTS	-0.5678
-5.9042	AIRPOWER	-0.1791
-4.9633	AIRS	-0.4240
-5.8316	AIRSHIP	-0.1119
-5.9679	AIRSHIPS	-0.1465
-4.8756	AIRSPACE	-0.5098
-5.8234	AIRSPEED	-0.2945
-5.4271	AIRSTRIKE	-0.3318
-4.8664	AIRSTRIKES	-0.5329
-5.1603	AIRSTRIP	-0.3996
-5.5476	AIRSTRIPS	-0.2993
-5.4869	AIRTIGHT	-0.1126
-5.4371	AIRTIME	-0.3115
-5.2621	AIRTOUCH	-0.2691
-5.3545	AIRTRAN	-0.2507
-5.9913	AIRWAVE	-0.1461
-5.2402	AIRWAVES	-0.2542
-5.6446	AIRWAY	-0.1225
-5.0371	AIRWAYS	-0.2948
-6.0162	AIRWAYS'	-0.0458
-5.7281	AIRWORTHINESS	-0.2935
-6.0036	AIRWORTHY	-0.2473
-5.3223	AIRY	-0.1004
-5.7216	AIS	-0.1138
-5.1327	AISLE	-0.2170
-5.2666	AISLES	-0.2639
-5.6446	AITKEN	-0.1749
-5.9244	AIWA	-0.0589
-6.0291	AJAJ	-0.1454
-5.9244	AJAR	-0.2522
-4.8250	AJAX	-0.3498
-5.6392	AJAX'S	-0.0911
-5.9794	AJINOMOTO	-0.1569
-4.9193	AKA	-0.1252
-6.1859	AKAI	-0.0194
-6.4015	AKAKA	-0.1170
-6.3715	AKALI	-0.6752
-5.1603	AKASHI	-0.3039
-6.1497	AKASHI'S	-0.1530
-4.9783	AKBAR	-0.3077
-5.7995	AKE	-0.1034
-5.3687	AKEBONO	-0.3010
-5.7347	AKEL	-0.2057
-5.7088	AKER	-0.3196
-5.2532	AKERS	-0.2354
-5.4337	AKHTAR	-0.1787
-5.3249	AKI	-0.4529
-6.0162	AKIBA	-0.1442
-5.5102	AKIHITO	-0.1773
-4.7442	AKIN	-0.7782
-5.4271	AKINS	-0.2186
-5.8849	AKIO	-0.1007
-5.2466	AKIRA	-0.1755
-5.7483	AKITA	-0.1564
-5.9913	AKIVA	-0.1682
-5.9679	AKIYAMA	-0.0931
-5.4507	AKRON	-0.2197
-5.5745	AKZO	-0.3631
-3.6129	AL	-0.5023
-5.5348	AL'S	-0.0326
-5.4438	ALA	-0.0839
-4.4791	ALABAMA	-0.3805
-5.2805	ALABAMA'S	-0.0991
-5.7347	ALABASTER	-0.0840
-6.3172	ALACHUA	-0.2780
-6.0036	ALACRITY	-0.2532
-5.5223	ALADDIN	-0.2093
-5.8234	ALAGNA	-0.1547
-6.1674	ALAI	-0.0354
-4.7933	ALAIN	-0.3295
-5.1131	ALAM	-0.2064
-5.4371	ALAMEDA	-0.2711
-6.5476	ALAMEIN	-0.0985
-7.1677	ALAMITOS	0.0000
-5.3408	ALAMO	-0.1413
-6.7025	ALAMOS	-0.0020
-4.2054	ALAN	-0.3844
-6.0162	ALAN'S	0.0000
-5.8487	ALANA	-0.1521
-6.2466	ALAND	-0.0458
-5.4758	ALANIS	-0.5962
-5.1195	ALARCON	-0.3142
-4.6533	ALARM	-0.4728
-4.8487	ALARMED	-0.4002
-4.9223	ALARMING	-0.2554
-5.3545	ALARMINGLY	-0.1861
-5.5609	ALARMIST	-0.2050
-5.0036	ALARMS	-0.3808
-5.0098	ALAS	-0.1916
-4.6386	ALASKA	-0.3386
-5.2972	ALASKA'S	-0.1567
-5.1822	ALASKAN	-0.1637
-5.6081	ALASKANS	-0.1532
-5.5223	ALASTAIR	-0.1392
-6.1327	ALATORRE	-0.1180
-5.2193	ALBA	-0.2160
-5.9679	ALBACORE	-0.1436
-5.5934	ALBAN	-0.2543
-5.6668	ALBANESE	-0.2590
-4.6544	ALBANIA	-0.4024
-4.9794	ALBANIA'S	-0.2621
-4.4728	ALBANIAN	-0.4135
-4.7717	ALBANIANS	-0.3509
-5.6612	ALBANO	-0.1834
-7.0704	ALBANS	0.0000
-4.9434	ALBANY	-0.2466
-5.8073	ALBANY'S	-0.0161
-6.4015	ALBARADO	-0.0527
-5.5745	ALBATROSS	-0.1494
-6.0705	ALBATROSSES	-0.1631
-5.5265	ALBEE	-0.1231
-4.2598	ALBEIT	-0.5348
-6.1674	ALBEMARLE	-0.2039
-5.9679	ALBER	-0.2508
-5.7151	ALBERS	-0.1732
-4.3226	ALBERT	-0.3407
-5.1052	ALBERTA	-0.2079
-6.1005	ALBERTINI	-0.0331
-4.5481	ALBERTO	-0.3447
-5.6668	ALBERTS	-0.2250
-5.9794	ALBERTSON	-0.0605
-5.7623	ALBERTSON'S	-0.1186
-5.9349	ALBERTVILLE	-0.1951
-5.7553	ALBIE	-0.5450
-5.8073	ALBIN	-0.1948
-5.9679	ALBINA	-0.0972
-5.5348	ALBINO	-0.1203
-5.7483	ALBION	-0.0810
-5.3198	ALBRECHT	-0.2454
-4.3357	ALBRIGHT	-0.4897
-6.0563	ALBRITTON	-0.1836
-4.3180	ALBUM	-0.4050
-6.0705	ALBUM'S	-0.0362
-6.0852	ALBUMIN	-0.1255
-4.6435	ALBUMS	-0.5295
-5.2092	ALBUQUERQUE	-0.2311
-5.7995	ALBUS	-0.1038
-6.1005	ALBUTEROL	-0.1642
-5.7695	ALCALA	-0.2184
-5.6668	ALCAN	-0.2153
-5.5520	ALCANTARA	-0.1776
-5.0853	ALCATEL	-0.3327
-5.7347	ALCATEL'S	-0.0694
-5.6032	ALCATRAZ	-0.1919
-6.2052	ALCEE	-0.6375
-5.4404	ALCHEMY	-0.3176
-5.2338	ALCOA	-0.3010
-5.7995	ALCOA'S	-0.0397
-6.1674	ALCOCER	-0.0793
-5.8849	ALCOCK	-0.1863
-4.3863	ALCOHOL	-0.4915
-4.8275	ALCOHOLIC	-0.3121
-5.3328	ALCOHOLICS	-0.3544
-5.1480	ALCOHOLISM	-0.3251
-5.6726	ALCOTT	-0.1636
-5.7347	ALCOVE	-0.2494
-5.8664	ALDA	-0.0610
-5.5609	ALDEN	-0.1607
-5.7918	ALDER	-0.1389
-5.4404	ALDERMAN	-0.1939
-5.9042	ALDERMEN	-0.1743
-5.3071	ALDERSON	-0.2603
-6.0291	ALDI	-0.0609
-5.3687	ALDO	-0.1926
-5.8316	ALDOUS	-0.5162
-6.2254	ALDRED	-0.0366
-5.3355	ALDRICH	-0.3364
-5.4946	ALDRIDGE	-0.2407
-5.8664	ALDRIN	-0.1684
-5.2092	ALE	-0.2825
-4.9182	ALEC	-0.4190
-6.0563	ALEGRE	-0.0481
-5.8073	ALEGRIA	-0.1190
-4.8673	ALEJANDRO	-0.2703
-5.9244	ALEJO	-0.1669
-5.3774	ALEKSANDER	-0.2191
-5.3046	ALEKSANDR	-0.2387
-5.0720	ALEMAN	-0.2578
-6.0291	ALENA	-0.1749
-5.9456	ALENIA	-0.2309
-6.1859	ALEPH	-0.1012
-4.5586	ALERT	-0.4391
-4.7222	ALERTED	-0.4269
-5.1343	ALERTING	-0.2987
-5.5306	ALERTNESS	-0.3079
-5.0619	ALERTS	-0.3564
-5.4721	ALES	-0.2741
-5.6032	ALESI	-0.1854
-5.6032	ALESSANDRA	-0.2367
-4.9644	ALESSANDRO	-0.4705
-5.8401	ALESSIO	-0.1727
-6.2689	ALEUTIAN	-0.1210
-6.5934	ALEUTIANS	-0.0319
-4.2363	ALEX	-0.4005
-5.6446	ALEX'S	-0.0570
-5.8234	ALEXA	-0.1193
-4.1058	ALEXANDER	-0.3619
-5.2997	ALEXANDER'S	-0.0768
-4.9193	ALEXANDRA	-0.2451
-4.9901	ALEXANDRE	-0.2175
-5.3147	ALEXANDRIA	-0.1800
-4.7307	ALEXEI	-0.4024
-5.3573	ALEXI	-0.4690
-5.7216	ALEXIA	-0.2412
-4.9818	ALEXIS	-0.2267
-5.3893	ALEXY	-0.2943
-5.4649	ALF	-0.1872
-5.3630	ALFA	-0.2536
-5.4685	ALFALFA	-0.2265
-5.8755	ALFANO	-0.1772
-5.5063	ALFARO	-0.1638
-5.8316	ALFIE	-0.1427
-6.0162	ALFONS	-0.1122
-5.5983	ALFONSE	-0.5877
-6.2254	ALFONSIN	-0.0944
-4.8673	ALFONSO	-0.3006
-5.3355	ALFORD	-0.2731
-4.5627	ALFRED	-0.3432
-4.9072	ALFREDO	-0.2297
-5.1532	ALGAE	-0.2796
-5.3435	ALGEBRA	-0.3181
-5.5609	ALGER	-0.2182
-4.7388	ALGERIA	-0.3634
-5.0358	ALGERIA'S	-0.2529
-4.7717	ALGERIAN	-0.3399
-5.3147	ALGERIANS	-0.2722
-5.3774	ALGIERS	-0.2216
-5.7281	ALGONQUIN	-0.2009
-5.7842	ALGORITHM	-0.1864
-5.7695	ALGORITHMS	-0.2229
-5.9794	ALHAMBRA	-0.1364
-4.0833	ALI	-0.3953
-5.2234	ALI'S	-0.1012
-5.7995	ALIANZA	-0.1011
-4.8234	ALIAS	-0.1347
-5.5934	ALIASES	-0.2598
-5.3984	ALIBI	-0.3304
-5.7768	ALIBIS	-0.2416
-4.6056	ALICE	-0.2719
-5.6234	ALICE'S	-0.1337
-5.5348	ALICEA	-0.1580
-4.9223	ALICIA	-0.2560
-4.6419	ALIEN	-0.2763
-5.6286	ALIENATE	-0.1944
-4.9656	ALIENATED	-0.3155
-5.9142	ALIENATES	-0.1256
-5.3517	ALIENATING	-0.2601
-5.1993	ALIENATION	-0.3850
-4.8367	ALIENS	-0.3396
-5.4507	ALIGHT	-0.3501
-5.4046	ALIGN	-0.2946
-4.8426	ALIGNED	-0.4424
-5.4984	ALIGNING	-0.4213
-5.0591	ALIGNMENT	-0.4066
-5.6726	ALIGNMENTS	-0.2308
-5.8849	ALIGNS	-0.3160
-5.5433	ALIJA	-0.3404
-4.4307	ALIKE	-0.4869
-6.6445	ALIKES	-0.0162
-5.5390	ALIMONY	-0.3268
-5.5983	ALINA	-0.2744
-5.8755	ALINE	-0.1007
-5.5390	ALIOTO	-0.2277
-4.9296	ALISON	-0.1709
-6.1005	ALISSA	-0.0924
-5.2948	ALISTAIR	-0.3070
-6.0852	ALISTER	-0.1214
-5.2152	ALITALIA	-0.2728
-5.8487	ALITALIA'S	-0.0558
-4.2473	ALIVE	-0.5924
-6.1674	ALIX	-0.0151
-5.9042	ALKA	-0.4949
-5.9566	ALKALI	-0.0733
-5.5023	ALKALINE	-0.3183
-3.1105	ALL	-0.7331
-5.9679	ALL'S	-0.3763
-5.4078	ALLA	-0.1114
-5.1462	ALLAH	-0.3203
-5.7483	ALLAIRE	-0.2722
-4.5319	ALLAN	-0.3216
-5.5886	ALLARD	-0.2048
-5.8755	ALLAY	-0.1511
-5.4946	ALLAYED	-0.3629
-5.7623	ALLAYING	-0.3356
-5.5886	ALLBAUGH	-0.1951
-5.9913	ALLEE	-0.2573
-4.7132	ALLEGATION	-0.4885
-4.1628	ALLEGATIONS	-0.6860
-4.9794	ALLEGE	-0.2842
-3.9852	ALLEGED	-0.4678
-3.9208	ALLEGEDLY	-0.5658
-4.7019	ALLEGES	-0.3862
-5.5183	ALLEGHENY	-0.3248
-4.9667	ALLEGIANCE	-0.4671
-5.4109	ALLEGIANCES	-0.3415
-4.4649	ALLEGING	-0.5464
-5.5654	ALLEGORICAL	-0.0884
-5.4304	ALLEGORY	-0.3953
-5.6964	ALLEGRA	-0.1882
-5.6500	ALLEGRO	-0.1312
-4.1039	ALLEN	-0.4298
-5.0023	ALLEN'S	-0.1160
-6.2052	ALLENDALE	-0.2075
-5.5654	ALLENDE	-0.1628
-6.5062	ALLENS	-0.0210
-5.8944	ALLENTOWN	-0.1593
-5.8152	ALLERGAN	-0.1701
-5.9913	ALLERGEN	-0.1123
-5.7918	ALLERGENS	-0.2335
-5.1638	ALLERGIC	-0.5412
-5.2234	ALLERGIES	-0.3742
-5.9244	ALLERGIST	-0.1764
-5.0838	ALLERGY	-0.3761
-5.3275	ALLEVIATE	-0.2127
-5.5306	ALLEVIATED	-0.2530
-5.9349	ALLEVIATES	-0.2243
-5.4205	ALLEVIATING	-0.2640
-5.6612	ALLEVIATION	-0.0873
-4.7887	ALLEY	-0.3139
-6.0563	ALLEY'S	0.0000
-5.8574	ALLEYNE	-0.1817
-5.2781	ALLEYS	-0.3142
-5.9042	ALLEYWAY	-0.1285
-5.7483	ALLEYWAYS	-0.2295
-6.1674	ALLGEMEINE	-0.1237
-5.6234	ALLI	-0.0980
-4.1562	ALLIANCE	-0.5378
-5.4238	ALLIANCE'S	-0.0790
-4.7281	ALLIANCES	-0.5467
-5.9456	ALLIANT	-0.2438
-5.2735	ALLIANZ	-0.3066
-5.6668	ALLIE	-0.1708
-4.3827	ALLIED	-0.5027
-5.8234	ALLIED'S	-0.0335
-5.6500	ALLIEDSIGNAL	-0.2286
-4.3457	ALLIES	-0.5792
-5.7995	ALLIES'	-0.0362
-5.1147	ALLIGATOR	-0.2198
-5.2689	ALLIGATORS	-0.2485
-5.8316	ALLIN	-0.1926
-6.2924	ALLIS	-0.0310
-4.7145	ALLISON	-0.2526
-5.6843	ALLISON'S	-0.0773
-5.5520	ALLMAN	-0.2242
-6.3715	ALLMON	0.0000
-6.2689	ALLMOND	-0.0787
-5.3302	ALLOCATE	-0.2727
-4.7334	ALLOCATED	-0.5658
-5.5183	ALLOCATES	-0.2945
-5.2689	ALLOCATING	-0.2845
-4.7630	ALLOCATION	-0.4975
-5.0344	ALLOCATIONS	-0.5460
-5.9349	ALLOT	-0.0931
-5.9142	ALLOTED	-0.3287
-5.2254	ALLOTMENT	-0.4152
-5.5609	ALLOTMENTS	-0.4300
-5.8664	ALLOTS	-0.1036
-5.1211	ALLOTTED	-0.4122
-5.9042	ALLOTTING	-0.0427
-4.2399	ALLOW	-0.3162
-5.3923	ALLOWABLE	-0.1524
-4.8811	ALLOWANCE	-0.5125
-4.9413	ALLOWANCES	-0.5169
-3.8169	ALLOWED	-0.5406
-3.8795	ALLOWING	-0.5181
-4.0570	ALLOWS	-0.4539
-5.3687	ALLOY	-0.2210
-5.7151	ALLOYS	-0.1809
-5.6784	ALLRED	-0.2531
-6.4015	ALLS	-0.0755
-5.9244	ALLSPICE	-0.1957
-5.3893	ALLSTATE	-0.2733
-5.9913	ALLSTON	-0.0883
-5.6556	ALLTEL	-0.2186
-5.8574	ALLUDE	-0.6053
-4.9478	ALLUDED	-0.9996
-5.5983	ALLUDES	-0.7903
-4.9349	ALLUDING	-1.1781
-4.9830	ALLURE	-0.4206
-5.3021	ALLURING	-0.1239
-5.4577	ALLUSION	-0.4348
-5.2876	ALLUSIONS	-0.4942
-5.9679	ALLUVIAL	-0.2512
-4.4141	ALLY	-0.4712
-5.8849	ALLY'S	-0.0097
-5.7768	ALLYING	-0.4953
-5.7842	ALLYN	-0.1278
-6.0852	ALLYSON	-0.0179
-5.8316	ALM	-0.1271
-4.9522	ALMA	-0.3335
-6.1163	ALMAN	-0.1308
-5.5348	ALMANAC	-0.2636
-6.2254	ALMANZA	-0.0664
-6.2924	ALMANZAR	-0.0630
-6.0852	ALMASY	-0.0515
-5.2052	ALMEIDA	-0.2784
-5.6556	ALMIGHTY	-0.1200
-5.6182	ALMODOVAR	-0.1283
-6.0291	ALMON	-0.1827
-5.0778	ALMOND	-0.2531
-5.3408	ALMONDS	-0.2852
-5.4507	ALMONTE	-0.2397
-3.4979	ALMOST	-0.7562
-5.6784	ALMS	-0.2686
-5.7768	ALOE	-0.2246
-5.0111	ALOFT	-0.4158
-5.4371	ALOHA	-0.2669
-5.6726	ALOIS	-0.2828
-6.5934	ALOISI	0.0000
-6.0705	ALOISIO	-0.1284
-5.4577	ALON	-0.2889
-3.7345	ALONE	-0.6473
-3.3270	ALONG	-0.8424
-6.4684	ALONGS	-0.0656
-4.0739	ALONGSIDE	-0.3517
-5.2072	ALONSO	-0.2175
-4.9413	ALONZO	-0.5174
-5.2576	ALOOF	-0.2727
-5.7088	ALOOFNESS	-0.3055
-5.8073	ALOT	-0.4080
-5.0868	ALOUD	-0.4425
-5.8755	ALOYSIUS	-0.0708
-5.8401	ALPA	-0.1633
-5.7623	ALPACA	-0.1540
-5.9349	ALPER	-0.1623
-5.4721	ALPERT	-0.2537
-4.8392	ALPHA	-0.3322
-5.7347	ALPHA'S	-0.1788
-5.2621	ALPHABET	-0.2739
-5.8574	ALPHABETICAL	-0.1842
-5.6726	ALPHABETICALLY	-0.2567
-6.3172	ALPHANDERY	-0.1618
-5.7025	ALPHARETTA	-0.1989
-5.5023	ALPHONSE	-0.1780
-4.7082	ALPINE	-0.3406
-5.7623	ALPIREZ	-0.1849
-5.8755	ALPO	-0.2622
-5.5142	ALPS	-0.2291
-3.4927	ALREADY	-0.6654
-5.6234	ALRIGHT	-0.3160
-5.4758	ALS	-0.2504
-5.6500	ALSACE	-0.2322
-5.7151	ALSATIAN	-0.1214
-2.8629	ALSO	-0.9949
-5.8401	ALSOP	-0.1095
-6.0852	ALSTHOM	-0.0867
-5.3275	ALSTON	-0.2507
-5.3774	ALT	-0.3169
-5.3172	ALTA	-0.2626
-6.0563	ALTAI	-0.0822
-5.9456	ALTAMIRANO	-0.0896
-5.0605	ALTAR	-0.2981
-5.5390	ALTARS	-0.3052
-5.4438	ALTAVISTA	-0.2340
-6.0162	ALTAY	-0.0986
-4.7235	ALTER	-0.3331
-5.9456	ALTERA	-0.1444
-5.4046	ALTERATION	-0.4033
-5.1567	ALTERATIONS	-0.4639
-5.4304	ALTERCATION	-0.3396
-5.7281	ALTERCATIONS	-0.3637
-4.6674	ALTERED	-0.3439
-5.0162	ALTERING	-0.2648
-4.7281	ALTERNATE	-0.2735
-5.2689	ALTERNATED	-0.3429
-4.8628	ALTERNATELY	-0.0901
-5.2445	ALTERNATES	-0.3632
-4.9182	ALTERNATING	-0.2582
-6.0852	ALTERNATION	-0.2774
-4.2154	ALTERNATIVE	-0.4667
-5.5839	ALTERNATIVELY	-0.0688
-4.5640	ALTERNATIVES	-0.6462
-5.3745	ALTERS	-0.3481
-5.7553	ALTHEA	-0.2214
-6.1327	ALTHOFF	-0.0499
-3.4664	ALTHOUGH	-0.4787
-5.9456	ALTIMA	-0.1749
-6.2254	ALTIMETER	-0.1052
-4.9445	ALTITUDE	-0.2770
-5.6392	ALTITUDES	-0.2442
-5.0778	ALTMAN	-0.2416
-5.7995	ALTMAN'S	-0.0388
-5.2132	ALTO	-0.1429
-4.2404	ALTOGETHER	-0.5309
-5.3745	ALTON	-0.2279
-6.0563	ALTOONA	-0.1617
-5.8487	ALTOS	-0.0970
-5.6903	ALTRUISM	-0.1821
-5.5564	ALTRUISTIC	-0.1112
-5.9679	ALTSCHUL	-0.1235
-5.3716	ALUM	-0.1417
-6.0563	ALUMAX	-0.1296
-5.6234	ALUMINA	-0.2417
-5.1480	ALUMINIUM	-0.1968
-4.5420	ALUMINUM	-0.3505
-4.6970	ALUMNI	-0.3660
-5.2254	ALUMNUS	-0.2768
-5.4832	ALUMS	-0.2094
-5.8487	ALUN	-0.4588
-5.9794	ALUSUISSE	-0.2182
-5.7768	ALVA	-0.1262
-5.2213	ALVARADO	-0.2413
-6.1327	ALVARENGA	-0.0479
-6.0425	ALVARES	-0.1263
-4.6879	ALVAREZ	-0.3390
-4.9633	ALVARO	-0.3595
-6.0036	ALVEAR	-0.1055
-5.2338	ALVES	-0.2155
-4.8944	ALVIN	-0.3046
-5.8755	ALVIS	-0.1051
-6.1327	ALWALEED	-0.1418
-3.7333	ALWAYS	-0.5152
-6.0852	ALWIN	-0.1733
-5.7347	ALY	-0.1301
-6.0425	ALYSHEBA	-0.2317
-5.6784	ALYSSA	-0.1637
-5.7347	ALZA	-0.1851
-4.9901	ALZHEIMER'S	-0.4126
-4.7659	AM	-0.1295
-6.8486	AM'S	0.0000
-5.8487	AMADEO	-0.1187
-5.6392	AMADEUS	-0.2289
-5.3745	AMADO	-0.2593
-5.5223	AMADOR	-0.2023
-5.3490	AMADOU	-0.4373
-5.6903	AMAKER	-0.2267
-5.3223	AMAL	-0.2241
-5.4907	AMALGAM	-0.5127
-5.6903	AMALGAMATED	-0.2140
-5.7842	AMALGAMATION	-0.2792
-5.8152	AMALIA	-0.1082
-6.9455	AMALIE	0.0000
-5.4205	AMAN	-0.1795
-5.8487	AMANA	-0.0703
-4.7183	AMANDA	-0.2351
-5.8944	AMANDA'S	-0.0461
-5.9456	AMANO	-0.2129
-6.0162	AMANPOUR	-0.0874
-5.3071	AMAR	-0.1934
-5.6131	AMARA	-0.2692
-5.3517	AMARAL	-0.2423
-5.8849	AMARI	-0.1342
-5.5023	AMARILLO	-0.1786
-5.9042	AMARO	-0.1313
-5.8574	AMARYLLIS	-0.1158
-5.6081	AMASS	-0.1518
-4.8316	AMASSED	-0.5654
-5.2423	AMASSING	-0.3428
-4.5170	AMATEUR	-0.3737
-5.5433	AMATEURISH	-0.1262
-5.7088	AMATEURISM	-0.2117
-5.0111	AMATEURS	-0.3790
-6.4337	AMATIL	0.0000
-5.1878	AMATO	-0.2838
-6.1674	AMAX	-0.1294
-5.7483	AMAYA	-0.1496
-5.8944	AMAZE	-0.2401
-5.0749	AMAZED	-0.4824
-5.4577	AMAZEMENT	-0.3408
-5.8152	AMAZES	-0.3376
-4.7209	AMAZING	-0.2266
-5.1036	AMAZINGLY	-0.1600
-4.7987	AMAZON	-0.2948
-5.3954	AMAZON'S	-0.0936
-6.1327	AMAZONIA	-0.0961
-5.6903	AMAZONIAN	-0.1192
-4.2423	AMBASSADOR	-0.4182
-5.5983	AMBASSADOR'S	-0.1953
-5.5063	AMBASSADORIAL	-0.3537
-4.7038	AMBASSADORS	-0.5211
-6.1163	AMBASSADORSHIP	-0.1797
-5.9913	AMBASSADORSHIPS	-0.1975
-4.9328	AMBER	-0.2149
-5.9244	AMBER'S	-0.1330
-5.3490	AMBIANCE	-0.3490
-5.0974	AMBIENCE	-0.4100
-5.4173	AMBIENT	-0.1906
-5.4473	AMBIGUITIES	-0.3788
-5.1277	AMBIGUITY	-0.4223
-5.0011	AMBIGUOUS	-0.2440
-4.6506	AMBITION	-0.5322
-4.6333	AMBITIONS	-0.5328
-4.5446	AMBITIOUS	-0.2748
-5.8401	AMBITIOUSLY	-0.0478
-5.1147	AMBIVALENCE	-0.5251
-5.2072	AMBIVALENT	-0.2857
-5.7483	AMBLE	-0.2424
-5.4832	AMBLED	-0.5451
-5.8849	AMBLER	-0.1264
-5.8487	AMBLES	-0.2063
-5.7281	AMBLING	-0.1976
-5.0398	AMBROSE	-0.2348
-5.9566	AMBROSIA	-0.1143
-6.6445	AMBROSIANO	-0.0490
-4.8737	AMBULANCE	-0.3462
-4.9986	AMBULANCES	-0.4346
-5.7151	AMBULATORY	-0.1724
-4.9402	AMBUSH	-0.4020
-4.9986	AMBUSHED	-0.4521
-5.2598	AMBUSHES	-0.4095
-5.7025	AMBUSHING	-0.2037
-6.2052	AMCOR	-0.0391
-6.1163	AMEEN	-0.0702
-5.1822	AMELIA	-0.2701
-5.7151	AMELIO	-0.1704
-6.1163	AMELIORATE	-0.1104
-5.4404	AMEN	-0.3321
-5.6081	AMENABLE	-0.3986
-5.3223	AMEND	-0.2512
-4.8811	AMENDED	-0.3613
-5.2072	AMENDING	-0.4445
-4.5290	AMENDMENT	-0.4295
-6.2052	AMENDMENT'S	-0.0835
-4.6743	AMENDMENTS	-0.5377
-5.5476	AMENDS	-0.2534
-4.9402	AMENITIES	-0.4915
-5.7553	AMENITY	-0.1529
-6.1327	AMENT	-0.1927
-5.3275	AMER	-0.2537
-5.7918	AMERADA	-0.7956
-3.9888	AMERICA	-0.4160
-4.1011	AMERICA'S	-0.4180
-3.5535	AMERICAN	-0.6137
-5.0868	AMERICAN'S	-0.1212
-5.1916	AMERICANA	-0.2121
-5.9794	AMERICANISM	-0.0838
-5.8152	AMERICANIZATION	-0.2686
-5.6726	AMERICANIZED	-0.1457
-5.9913	AMERICANO	-0.0936
-4.0186	AMERICANS	-0.5846
-4.9423	AMERICANS'	-0.1697
-6.1163	AMERICARES	-0.1036
-5.2735	AMERICAS	-0.1054
-5.8152	AMERICO	-0.2158
-5.4507	AMERICORPS	-0.3190
-6.0162	AMERICUS	-0.1566
-5.2275	AMERITECH	-0.2845
-5.8849	AMERITECH'S	-0.0442
-6.1674	AMERMAN	-0.0550
-5.7842	AMERSON	-0.1498
-4.9889	AMES	-0.2750
-5.9142	AMES'	-0.0143
-5.8152	AMETHYST	-0.0419
-5.5699	AMEX	-0.1037
-6.0291	AMEZCUA	-0.1681
-5.2338	AMGEN	-0.2938
-5.7088	AMGEN'S	-0.1224
-5.4046	AMHERST	-0.2038
-5.5433	AMI	-0.0681
-5.3745	AMIABLE	-0.0890
-5.5934	AMIABLY	-0.1594
-5.4337	AMICABLE	-0.2369
-5.4173	AMICABLY	-0.3807
-6.1674	AMICUS	-0.2245
-3.8159	AMID	-0.7682
-4.7007	AMIDST	-0.3583
-6.0036	AMIGA	-0.0363
-5.7553	AMIGO	-0.1600
-5.7347	AMIGOS	-0.1972
-4.9213	AMIN	-0.2275
-5.3984	AMINO	-1.1116
-4.6506	AMIR	-0.3381
-5.4946	AMIR'S	-0.1799
-6.0705	AMIRAM	-0.1572
-5.8487	AMIRAULT	-0.2330
-5.6784	AMIRI	-0.2967
-5.6446	AMIS	-0.0726
-5.3517	AMISH	-0.1572
-5.7151	AMISS	-0.3177
-5.6234	AMIT	-0.1534
-5.6500	AMITY	-0.2464
-5.0633	AMMAN	-0.2678
-5.7415	AMMANN	-0.1482
-5.8849	AMMERMAN	-0.1647
-6.0852	AMMIRATI	-0.7483
-5.6131	AMMO	-0.2076
-5.2666	AMMONIA	-0.2478
-5.6081	AMMONIUM	-0.5111
-4.6249	AMMUNITION	-0.4379
-5.7918	AMMUNITIONS	-0.2108
-5.4371	AMNESIA	-0.3403
-6.0425	AMNESIAC	0.0000
-5.4613	AMNESTIES	-0.3286
-4.4415	AMNESTY	-0.5688
-5.8487	AMNIOCENTESIS	-0.2535
-6.1674	AMNIOTIC	-0.3649
-6.0291	AMO	-0.1686
-5.2781	AMOCO	-0.2301
-6.0563	AMOCO'S	-0.0165
-6.0162	AMOEBA	-0.1760
-6.0852	AMOK	-0.1131
-5.6726	AMON	-0.2575
-3.3573	AMONG	-0.8578
-4.7518	AMONGST	-0.4313
-5.3833	AMOR	-0.2049
-5.5023	AMORAL	-0.0581
-5.9456	AMORE	-0.0925
-5.6032	AMOROSO	-0.1530
-5.5348	AMOROUS	-0.0553
-5.6081	AMORPHOUS	-0.0697
-5.6784	AMORTIZATION	-0.2208
-6.4015	AMORTIZE	-0.1234
-6.1327	AMORUSO	-0.0698
-5.7151	AMORY	-0.1769
-4.9370	AMOS	-0.2253
-4.2977	AMOUNT	-0.5479
-4.2900	AMOUNTED	-1.4773
-4.5658	AMOUNTING	-1.3208
-4.2972	AMOUNTS	-0.7024
-5.7918	AMP	-0.0893
-5.3490	AMPHETAMINE	-0.2827
-5.4046	AMPHETAMINES	-0.3272
-5.6556	AMPHIBIAN	-0.1028
-5.6338	AMPHIBIANS	-0.2469
-5.1638	AMPHIBIOUS	-0.4794
-5.3328	AMPHITHEATER	-0.3204
-5.9679	AMPHITHEATERS	-0.1506
-5.9244	AMPHITHEATRE	-0.2126
-4.8041	AMPLE	-0.3178
-5.6081	AMPLIFICATION	-0.2423
-5.2092	AMPLIFIED	-0.2938
-5.6338	AMPLIFIER	-0.2312
-5.5476	AMPLIFIERS	-0.2876
-5.8849	AMPLIFIES	-0.2000
-5.7483	AMPLIFY	-0.1950
-5.7842	AMPLIFYING	-0.1802
-6.0425	AMPLITUDE	-0.2185
-5.4015	AMPLY	-0.1969
-6.2052	AMPUTATE	-0.0815
-5.5102	AMPUTATED	-0.3591
-5.4685	AMPUTATION	-0.3364
-5.5745	AMPUTATIONS	-0.2897
-5.9456	AMPUTEE	-0.1288
-5.5886	AMPUTEES	-0.2135
-5.2972	AMR	-0.2933
-6.1163	AMRE	-0.2357
-5.9456	AMRITSAR	-0.1708
-6.1005	AMRO	-0.0224
-5.7768	AMS	-0.1160
-4.8682	AMSTERDAM	-0.2588
-5.5306	AMSTERDAM'S	-0.1705
-4.7857	AMTRAK	-0.3264
-5.3302	AMTRAK'S	-0.1326
-5.6446	AMULETS	-0.1791
-5.6964	AMUNDSEN	-0.1847
-5.9794	AMUNDSON	-0.1586
-5.6032	AMUSE	-0.2683
-5.0974	AMUSED	-0.3515
-4.7139	AMUSEMENT	-0.6474
-5.6726	AMUSEMENTS	-0.2126
-5.9042	AMUSES	-0.1526
-4.9456	AMUSING	-0.2110
-5.5839	AMUSINGLY	-0.0453
-5.3954	AMWAY	-0.2194
-4.5507	AMY	-0.2465
-5.6081	AMY'S	-0.1165
-5.9244	AMYLOID	-0.1722
-5.9566	AMYOTROPHIC	-1.4511
-2.7712	AN	-1.3147
-4.8964	ANA	-0.1983
-5.4577	ANABOLIC	-0.7294
-5.5063	ANACHRONISM	-0.2325
-5.9142	ANACHRONISMS	-0.3261
-5.4271	ANACHRONISTIC	-0.1124
-5.7918	ANACONDA	-0.1083
-6.3172	ANACOSTIA	-0.0899
-6.0036	ANADARKO	-0.2340
-4.7539	ANAHEIM	-0.3803
-5.5792	ANAL	-0.2997
-6.0162	ANALGESIC	-0.1746
-5.0162	ANALOG	-0.3537
-5.4577	ANALOGIES	-0.3337
-5.5102	ANALOGOUS	-0.3914
-5.4173	ANALOGUE	-0.2561
-5.0577	ANALOGY	-0.3749
-4.8682	ANALYSES	-0.4911
-4.1867	ANALYSIS	-0.6003
-4.1325	ANALYST	-0.5188
-5.7768	ANALYST'S	-0.1206
-3.9220	ANALYSTS	-0.8093
-5.1115	ANALYSTS'	-0.4635
-5.5306	ANALYTIC	-0.1062
-5.0331	ANALYTICAL	-0.2255
-5.8487	ANALYTICS	-0.1556
-5.0605	ANALYZE	-0.2290
-4.7361	ANALYZED	-0.3775
-5.7918	ANALYZER	-0.1631
-5.3355	ANALYZES	-0.1637
-4.9275	ANALYZING	-0.2826
-5.0452	ANAND	-0.2573
-5.4438	ANARCHIC	-0.0973
-5.4438	ANARCHIST	-0.1929
-5.4473	ANARCHISTS	-0.2326
-5.0252	ANARCHY	-0.4092
-5.9566	ANAS	-0.1314
-6.0162	ANASAZI	-0.0616
-5.2445	ANASTASIA	-0.2238
-5.7768	ANASTASIO	-0.1970
-5.5390	ANATHEMA	-0.5090
-5.8944	ANATOLE	-0.2536
-5.6446	ANATOLI	-0.2000
-4.9423	ANATOLIA	-0.6870
-6.0036	ANATOLIAN	-0.1180
-4.9544	ANATOLY	-0.3092
-5.4271	ANATOMICAL	-0.0944
-5.7623	ANATOMICALLY	-0.3628
-5.1638	ANATOMY	-0.3564
-5.7281	ANAYA	-0.1569
-6.3435	ANBARI	-0.0486
-5.2666	ANCESTOR	-0.2920
-4.8821	ANCESTORS	-0.3745
-5.1532	ANCESTRAL	-0.2791
-5.1462	ANCESTRY	-0.4046
-4.6333	ANCHOR	-0.3454
-6.1163	ANCHOR'S	-0.0310
-5.2805	ANCHORAGE	-0.2427
-4.6790	ANCHORED	-0.5971
-5.2013	ANCHORING	-0.2862
-5.4649	ANCHORMAN	-0.1854
-4.9456	ANCHORS	-0.3165
-5.4869	ANCHOVIES	-0.2443
-5.7347	ANCHOVY	-0.1355
-4.3336	ANCIENT	-0.3127
-6.4337	ANCIENTS	-0.0101
-5.4649	ANCILLARY	-0.2121
-5.8234	ANCONA	-0.1400
-2.2424	AND	-0.5214
-5.8487	ANDALUSIA	-0.2011
-5.8944	ANDALUSIAN	-0.0616
-5.1674	ANDEAN	-0.2816
-6.5934	ANDEL	-0.0654
-4.9950	ANDERS	-0.2757
-4.6071	ANDERSEN	-0.3878
-5.2072	ANDERSEN'S	-0.1858
-4.0848	ANDERSON	-0.5232
-4.9193	ANDERSON'S	-0.1529
-5.2488	ANDERSSON	-0.3074
-5.5983	ANDERTON	-0.1103
-5.6032	ANDES	-0.1720
-5.6032	ANDIE	-0.6184
-5.9456	ANDINO	-0.1956
-5.6784	ANDO	-0.2278
-5.5609	ANDORRA	-0.2319
-5.6726	ANDOVER	-0.1819
-5.0452	ANDRADE	-0.2670
-5.6338	ANDRAS	-0.2462
-4.3187	ANDRE	-0.4054
-4.6198	ANDREA	-0.2687
-4.7094	ANDREAS	-0.3406
-5.9456	ANDREE	-0.1060
-4.6121	ANDREI	-0.4268
-5.8664	ANDREJ	-0.1131
-5.4271	ANDREOTTI	-0.2500
-4.7301	ANDRES	-0.3545
-5.9456	ANDRESEN	-0.1440
-5.0384	ANDRETTI	-0.2903
-5.7623	ANDRETTI'S	-0.1107
-5.8849	ANDREU	-0.1519
-4.1694	ANDREW	-0.3354
-5.6500	ANDREW'S	-0.0351
-4.6280	ANDREWS	-0.3445
-5.7025	ANDREWS'	-0.0263
-5.6131	ANDREY	-0.1169
-5.6726	ANDROGYNOUS	-0.0577
-5.9794	ANDROID	-0.0498
-5.8755	ANDROMEDA	-0.1535
-6.2254	ANDROPOV	-0.0743
-5.8944	ANDROS	-0.1140
-5.7918	ANDRUS	-0.1707
-5.2972	ANDRZEJ	-0.2422
-6.1497	ANDS	0.0000
-6.0852	ANDUJAR	-0.2393
-4.2641	ANDY	-0.4094
-5.7088	ANDY'S	-0.0444
-5.1567	ANECDOTAL	-0.3838
-5.9142	ANECDOTALLY	-0.1022
-5.3658	ANECDOTE	-0.3346
-5.0011	ANECDOTES	-0.4512
-5.3172	ANEMIA	-0.3139
-5.1550	ANEMIC	-0.2020
-5.8401	ANEMONE	-0.1864
-5.4015	ANESTHESIA	-0.2480
-5.7415	ANESTHESIOLOGIST	-0.1860
-5.6843	ANESTHESIOLOGISTS	-0.1537
-6.1859	ANESTHESIOLOGY	-0.0891
-5.7216	ANESTHETIC	-0.1746
-5.9042	ANESTHETICS	-0.1690
-6.3435	ANESTHETIST	-0.0634
-4.6229	ANEW	-0.6824
-4.9489	ANG	-0.2572
-6.0425	ANGE	-0.0999
-4.4297	ANGEL	-0.2859
-4.7216	ANGELA	-0.2255
-5.5654	ANGELA'S	-0.3383
-5.6234	ANGELENOS	-0.1880
-5.3774	ANGELES	-0.0079
-6.7694	ANGELES'	0.0000
-5.5934	ANGELI	-0.2934
-5.4907	ANGELIC	-0.0689
-5.4238	ANGELICA	-0.1346
-5.6964	ANGELIKA	-0.2053
-5.2423	ANGELINA	-0.3353
-5.5476	ANGELL	-0.2302
-4.9042	ANGELO	-0.2215
-5.3893	ANGELOS	-0.2149
-5.8234	ANGELOU	-0.0776
-4.5636	ANGELS	-0.3169
-5.8755	ANGELS'	-0.0259
-4.3302	ANGER	-0.5341
-4.4371	ANGERED	-0.4363
-4.9962	ANGERING	-0.2572
-5.3716	ANGERS	-0.2110
-5.1803	ANGIE	-0.1845
-5.5654	ANGINA	-0.2833
-6.2466	ANGIOGRAM	-0.0858
-5.4109	ANGIOPLASTY	-0.3843
-4.6732	ANGLE	-0.4386
-5.1480	ANGLED	-0.2293
-5.4371	ANGLER	-0.2090
-5.0187	ANGLERS	-0.3084
-4.9748	ANGLES	-0.3636
-6.0162	ANGLETON	-0.1231
-6.5476	ANGLIA	-0.0244
-5.1411	ANGLICAN	-0.3344
-5.2052	ANGLING	-0.2795
-4.8291	ANGLO	-0.4046
-5.7088	ANGLOS	-0.2147
-4.6539	ANGOLA	-0.3748
-4.9223	ANGOLA'S	-0.3181
-4.7609	ANGOLAN	-0.3920
-5.4304	ANGOLANS	-0.2875
-5.8755	ANGORA	-0.2311
-5.7088	ANGRIER	-0.2409
-6.2052	ANGRIEST	-0.0106
-4.5154	ANGRILY	-0.4529
-4.2742	ANGRY	-0.3931
-4.9122	ANGST	-0.4435
-5.5934	ANGUILLA	-0.2123
-5.0318	ANGUISH	-0.4155
-5.1711	ANGUISHED	-0.1395
-5.3601	ANGULAR	-0.1099
-5.6843	ANGULO	-0.1696
-5.1052	ANGUS	-0.2390
-6.2466	ANHALT	-0.0468
-5.1179	ANHEUSER	-1.0823
-6.7025	ANHYDRIDE	-0.0178
-5.5564	ANIBAL	-0.1450
-4.1182	ANIMAL	-0.4969
-5.8944	ANIMAL'S	-0.0221
-4.2402	ANIMALS	-0.5419
-5.6843	ANIMALS'	-0.0326
-5.7918	ANIMATE	-0.1621
-4.6234	ANIMATED	-0.3305
-4.6970	ANIMATION	-0.3477
-5.5699	ANIMATIONS	-0.2538
-5.5520	ANIMATOR	-0.1791
-5.3096	ANIMATORS	-0.2172
-5.8574	ANIMIST	-0.1851
-6.3715	ANIMISTS	-0.1165
-5.4649	ANIMOSITIES	-0.3421
-5.0305	ANIMOSITY	-0.5027
-5.8401	ANIMUS	-0.3080
-6.1674	ANINAT	-0.1526
-5.7088	ANISE	-0.1589
-4.8583	ANITA	-0.2057
-5.7025	ANJA	-0.2613
-5.6286	ANJELICA	-0.6925
-4.9423	ANKARA	-0.2745
-5.4015	ANKARA'S	-0.1175
-5.9913	ANKER	-0.0745
-4.6360	ANKLE	-0.4078
-5.3517	ANKLES	-0.2586
-4.4334	ANN	-0.2055
-5.7842	ANN'S	-0.0091
-4.4677	ANNA	-0.2733
-5.6843	ANNA'S	-0.0250
-5.6612	ANNABEL	-0.2936
-5.8401	ANNABELLA	-0.5011
-5.9142	ANNABELLE	-0.0561
-5.4404	ANNALS	-0.3475
-4.2547	ANNAN	-0.5471
-6.2052	ANNANDALE	-0.2104
-5.6668	ANNAPOLIS	-0.1712
-6.1674	ANNAS	-0.2000
-4.3969	ANNE	-0.2567
-5.4907	ANNE'S	-0.0986
-5.8849	ANNENBERG	-0.1626
-5.0439	ANNETTE	-0.2019
-5.1260	ANNEX	-0.3040
-5.2972	ANNEXATION	-0.4472
-5.3328	ANNEXED	-0.4372
-5.7695	ANNEXES	-0.2353
-5.6556	ANNEXING	-0.2468
-4.8026	ANNIE	-0.2425
-5.7347	ANNIE'S	-0.0534
-5.9456	ANNIHILATE	-0.1628
-5.6843	ANNIHILATED	-0.2461
-5.4907	ANNIHILATION	-0.3765
-6.1163	ANNISTON	-0.1417
-5.3774	ANNIVERSARIES	-0.3730
-4.7381	ANNIVERSARY	-0.4371
-6.0291	ANNO	-0.1697
-5.6668	ANNOTATED	-0.1269
-4.7956	ANNOUNCE	-0.3208
-3.4348	ANNOUNCED	-1.0093
-4.0609	ANNOUNCEMENT	-0.6424
-4.6940	ANNOUNCEMENTS	-0.5363
-5.0239	ANNOUNCER	-0.2768
-5.2380	ANNOUNCERS	-0.2314
-4.5745	ANNOUNCES	-0.5110
-4.3954	ANNOUNCING	-0.5290
-5.6668	ANNOY	-0.1748
-5.2296	ANNOYANCE	-0.4579
-5.7483	ANNOYANCES	-0.2287
-4.9986	ANNOYED	-0.4612
-4.9533	ANNOYING	-0.2035
-5.8234	ANNOYS	-0.2248
-3.9440	ANNUAL	-0.5263
-5.4795	ANNUALIZED	-0.2556
-4.0982	ANNUALLY	-0.7121
-5.5265	ANNUALS	-0.3058
-5.4984	ANNUITIES	-0.2474
-5.5102	ANNUITY	-0.2206
-5.7842	ANNUL	-0.1554
-5.2112	ANNULLED	-0.4687
-5.6234	ANNULMENT	-0.2680
-6.5062	ANNUM	-0.0081
-6.0563	ANNUNZIATA	-0.1853
-6.0162	ANOINT	-0.0932
-5.2275	ANOINTED	-0.2628
-5.2712	ANOMALIES	-0.3726
-5.7216	ANOMALOUS	-0.0714
-5.3021	ANOMALY	-0.3478
-5.9456	ANOMIE	-0.1535
-5.0577	ANONYMITY	-0.2901
-4.7026	ANONYMOUS	-0.2230
-4.9830	ANONYMOUSLY	-0.3608
-5.5609	ANOREXIA	-0.2397
-5.7347	ANOREXIC	-0.1152
-3.3440	ANOTHER	-0.6408
-5.4337	ANOTHER'S	-0.0317
-4.9759	ANSA	-0.5558
-5.5348	ANSARI	-0.2525
-5.6556	ANSCHUTZ	-0.2052
-6.2924	ANSE	-0.1226
-5.7918	ANSEL	-0.4616
-6.0425	ANSELL	-0.1180
-5.9456	ANSELM	-0.1763
-5.6338	ANSELMO	-0.1639
-5.1822	ANSETT	-0.3490
-5.6446	ANSHAN	-0.1963
-5.9042	ANSLEY	-0.2710
-5.1916	ANSON	-0.4334
-6.2254	ANSTEAD	-0.1127
-5.9566	ANSTEY	-0.1537
-4.2317	ANSWER	-0.4808
-5.5886	ANSWERABLE	-0.6857
-4.1360	ANSWERED	-0.6435
-4.5507	ANSWERING	-0.5604
-4.3134	ANSWERS	-0.5878
-5.1445	ANT	-0.1794
-5.9794	ANTACID	-0.1510
-5.9794	ANTACIDS	-0.1516
-5.2466	ANTAGONISM	-0.4654
-5.8401	ANTAGONISMS	-0.2149
-5.5265	ANTAGONIST	-0.2095
-5.3893	ANTAGONISTIC	-0.1698
-5.4304	ANTAGONISTS	-0.2801
-6.0036	ANTAGONIZE	-0.0938
-5.6726	ANTAGONIZED	-0.2146
-5.7695	ANTAGONIZING	-0.1703
-5.9244	ANTAR	-0.1482
-5.1005	ANTARCTIC	-0.2222
-5.2621	ANTARCTICA	-0.2864
-5.9142	ANTARCTICA'S	-0.0456
-5.0563	ANTE	-0.3166
-5.7216	ANTEBELLUM	-0.2073
-5.8234	ANTECEDENTS	-0.2667
-5.9244	ANTED	-0.9919
-5.3716	ANTELOPE	-0.2496
-5.0252	ANTENNA	-0.3205
-5.4438	ANTENNAE	-0.2840
-5.1674	ANTENNAS	-0.3760
-5.7025	ANTERIOR	-0.2678
-5.3630	ANTES	-0.5264
-4.8392	ANTHEM	-0.3130
-5.2997	ANTHEMS	-0.3196
-5.6446	ANTHOLOGIES	-0.3050
-5.1480	ANTHOLOGY	-0.3031
-4.2046	ANTHONY	-0.3397
-5.5839	ANTHONY'S	-0.0426
-5.9456	ANTHRACITE	-0.0850
-4.6365	ANTHRAX	-0.5062
-5.6392	ANTHROPOLOGICAL	-0.1065
-5.2380	ANTHROPOLOGIST	-0.2091
-5.3601	ANTHROPOLOGISTS	-0.2375
-5.2666	ANTHROPOLOGY	-0.2770
-5.8755	ANTHROPOMORPHIC	-0.0307
-3.7316	ANTI	-0.8458
-5.4613	ANTIABORTION	-0.2381
-5.4141	ANTIAIRCRAFT	-0.5789
-5.7918	ANTIBACTERIAL	-0.1803
-6.0852	ANTIBALLISTIC	-0.9161
-5.0648	ANTIBIOTIC	-0.3116
-4.8226	ANTIBIOTICS	-0.4581
-5.1067	ANTIBODIES	-0.4136
-5.4507	ANTIBODY	-0.2272
-5.3716	ANTIC	-0.1133
-5.8944	ANTICANCER	-0.3190
-5.0425	ANTICIPATE	-0.3257
-4.5290	ANTICIPATED	-0.3129
-4.9391	ANTICIPATES	-0.3206
-4.7581	ANTICIPATING	-0.3601
-5.0226	ANTICIPATION	-0.4080
-5.8849	ANTICIPATORY	-0.1424
-5.6964	ANTICLIMACTIC	-0.2027
-5.4078	ANTICOMPETITIVE	-0.3468
-5.9142	ANTICORRUPTION	-0.1104
-4.8358	ANTICS	-0.4605
-5.5564	ANTIDEPRESSANT	-0.2265
-5.4721	ANTIDEPRESSANTS	-0.3256
-5.3121	ANTIDOTE	-0.5018
-5.4507	ANTIDRUG	-0.2285
-5.6286	ANTIDUMPING	-0.3097
-5.6338	ANTIFREEZE	-0.2676
-5.7918	ANTIGEN	-0.1692
-5.7995	ANTIGENS	-0.1925
-5.5223	ANTIGOVERNMENT	-0.2046
-5.2033	ANTIGUA	-0.2586
-5.8849	ANTIHISTAMINE	-0.1258
-5.7842	ANTIHISTAMINES	-0.1979
-6.0563	ANTILLES	-0.0720
-5.6726	ANTILOCK	-0.6798
-5.5934	ANTIMISSILE	-0.4215
-5.7415	ANTIOCH	-0.2187
-5.6903	ANTIOXIDANT	-0.1744
-5.6338	ANTIOXIDANTS	-0.2584
-5.2689	ANTIPATHY	-0.6104
-5.8849	ANTIPOVERTY	-0.2365
-5.1445	ANTIQUATED	-0.1553
-4.7094	ANTIQUE	-0.2470
-4.7361	ANTIQUES	-0.4411
-5.0778	ANTIQUITIES	-0.3377
-5.6081	ANTIQUITY	-0.2008
-5.7281	ANTISENSE	-0.2455
-5.5609	ANTISEPTIC	-0.0807
-5.5609	ANTISMOKING	-0.4036
-5.5102	ANTISOCIAL	-0.2361
-5.6392	ANTITANK	-0.4421
-5.9456	ANTITHESIS	-0.3904
-5.7918	ANTITHETICAL	-0.4023
-4.5640	ANTITRUST	-0.6585
-5.6032	ANTIVIRAL	-0.4282
-5.4046	ANTIWAR	-0.2074
-6.0162	ANTLER	-0.0485
-5.4758	ANTLERS	-0.1960
-5.3774	ANTLEY	-0.2269
-4.8418	ANTOINE	-0.3522
-5.6726	ANTOINETTE	-0.0523
-4.8217	ANTON	-0.2425
-5.9244	ANTONELLI	-0.1081
-5.6843	ANTONI	-0.1188
-5.5745	ANTONIA	-0.1070
-5.6182	ANTONIN	-0.3698
-6.2689	ANTONINI	-0.0616
-4.3376	ANTONIO	-0.2405
-6.1163	ANTONIO'S	0.0000
-5.8316	ANTONIUS	-0.2141
-5.7216	ANTONOVICH	-0.2016
-5.3096	ANTONY	-0.2402
-6.0705	ANTRIM	-0.0791
-5.0838	ANTS	-0.3046
-5.5886	ANTSY	-0.2084
-5.9913	ANTUNES	-0.0924
-5.5142	ANTWERP	-0.1729
-5.6964	ANVIL	-0.1574
-4.4012	ANWAR	-0.4857
-5.0384	ANXIETIES	-0.4650
-4.5319	ANXIETY	-0.5197
-4.5983	ANXIOUS	-0.4073
-5.0124	ANXIOUSLY	-0.3794
-3.5313	ANY	-0.7594
-4.3730	ANYBODY	-0.5453
-5.1462	ANYBODY'S	-0.1445
-5.1244	ANYHOW	-0.4364
-4.0036	ANYMORE	-0.7417
-4.0702	ANYONE	-0.6186
-5.0036	ANYONE'S	-0.1622
-5.4078	ANYPLACE	-0.4224
-3.9645	ANYTHING	-0.6333
-5.7842	ANYTHING'S	-0.3110
-4.4176	ANYTIME	-0.7679
-3.9557	ANYWAY	-0.6908
-4.0648	ANYWHERE	-0.8557
-6.2466	ANZA	-0.0829
-5.1052	AOKI	-0.2961
-4.5098	AOL	-0.4345
-5.9913	AON	-0.1364
-5.7842	AORTA	-0.1685
-6.0705	AORTIC	-0.3436
-5.9566	AOSHIMA	-0.1365
-5.6784	AOUN	-0.2521
-5.7483	AOYAMA	-0.1655
-5.8234	APACE	-0.3136
-5.0648	APACHE	-0.2926
-5.6556	APACHES	-0.1821
-5.9794	APALACHICOLA	-0.2177
-5.8944	APARICIO	-0.1315
-4.1414	APART	-0.6054
-4.8177	APARTHEID	-0.3523
-5.6964	APARTHEID'S	-0.1754
-4.1481	APARTMENT	-0.6301
-4.5285	APARTMENTS	-0.5807
-5.4173	APATHETIC	-0.2395
-5.1131	APATHY	-0.4012
-5.7415	APC	-0.0985
-5.1993	APE	-0.2029
-4.6726	APEC	-0.4627
-5.3408	APEC'S	-0.1797
-6.1327	APEL	-0.0804
-5.9244	APERTURE	-0.1418
-5.2359	APES	-0.2041
-5.4685	APEX	-0.1761
-6.0162	APFEL	-0.1897
-5.9244	APGAR	-0.1531
-6.1327	APHID	-0.0546
-5.6964	APHIDS	-0.2566
-5.9042	APHORISM	-0.1028
-5.7995	APHORISMS	-0.1449
-5.8664	APHRODISIAC	-0.0962
-5.9566	APHRODITE	-0.1106
-4.9244	APIECE	-0.5319
-5.7918	APING	-0.1993
-5.3071	APLENTY	-0.3717
-5.4832	APLOMB	-0.2889
-5.8401	APNEA	-0.1242
-5.2924	APOCALYPSE	-0.3471
-5.2643	APOCALYPTIC	-0.1046
-5.8755	APOCRYPHAL	-0.0812
-5.8152	APODACA	-0.1734
-6.0162	APOGEE	-0.1913
-5.4542	APOLITICAL	-0.1115
-4.9338	APOLLO	-0.3448
-5.4795	APOLOGETIC	-0.2500
-5.7695	APOLOGETICALLY	-0.1835
-4.9999	APOLOGIES	-0.5117
-5.8849	APOLOGIST	-0.2562
-5.6286	APOLOGISTS	-0.2703
-5.0213	APOLOGIZE	-0.4626
-4.3644	APOLOGIZED	-1.0014
-5.3381	APOLOGIZES	-0.5855
-5.0136	APOLOGIZING	-0.6524
-4.7428	APOLOGY	-0.4747
-5.9679	APONTE	-0.0902
-5.9456	APOPKA	-0.1855
-5.8755	APOPLECTIC	-0.2215
-5.6726	APOSTLE	-0.1278
-5.7553	APOSTLES	-0.2153
-5.9679	APOTHEOSIS	-0.2660
-5.3716	APP	-0.2894
-5.6668	APPALACHIA	-0.2253
-5.2948	APPALACHIAN	-0.2376
-6.2466	APPALACHIANS	-0.1225
-5.1916	APPALLED	-0.4818
-5.1394	APPALLING	-0.2153
-5.8152	APPALLINGLY	-0.1116
-6.0563	APPARATCHIK	-0.1814
-5.9794	APPARATCHIKS	-0.1871
-4.8444	APPARATUS	-0.3971
-5.7623	APPARATUSES	-0.2097
-4.6511	APPAREL	-0.4442
-4.4988	APPARENT	-0.2508
-3.6482	APPARENTLY	-0.6322
-5.6556	APPARITION	-0.1679
-5.8755	APPARITIONS	-0.2335
-3.9819	APPEAL	-0.6463
-4.0426	APPEALED	-1.0272
-4.5130	APPEALING	-0.4078
-5.7842	APPEALINGLY	-0.0229
-4.2545	APPEALS	-0.6245
-3.9472	APPEAR	-0.6078
-4.1292	APPEARANCE	-0.6719
-4.5361	APPEARANCES	-0.6099
-3.5533	APPEARED	-0.8760
-4.2795	APPEARING	-0.6572
-3.7615	APPEARS	-0.7287
-5.8152	APPEASE	-0.0700
-5.7995	APPEASED	-0.2007
-5.5348	APPEASEMENT	-0.2896
-5.7768	APPEASING	-0.1104
-5.5023	APPEL	-0.2625
-5.8073	APPELBAUM	-0.2143
-5.9566	APPELL	-0.1362
-5.0252	APPELLATE	-0.5717
-5.5745	APPELLATION	-0.1827
-5.8944	APPELLATIONS	-0.1924
-5.7415	APPENDAGE	-0.3719
-5.6784	APPENDAGES	-0.2418
-6.0705	APPENDECTOMY	-0.0954
-5.7995	APPENDED	-0.3326
-5.5183	APPENDIX	-0.3037
-4.7768	APPETITE	-0.5199
-5.1916	APPETITES	-0.3934
-5.3463	APPETIZER	-0.2513
-5.2997	APPETIZERS	-0.3049
-5.8234	APPETIZING	-0.1329
-5.2598	APPLAUD	-0.2838
-4.4784	APPLAUDED	-0.4862
-5.1360	APPLAUDING	-0.2869
-5.3408	APPLAUDS	-0.2690
-4.8461	APPLAUSE	-0.5223
-4.2965	APPLE	-0.4133
-4.9203	APPLE'S	-0.2394
-5.8487	APPLEBAUM	-0.2259
-5.9566	APPLEBEE'S	-0.1720
-5.4078	APPLEBY	-0.1875
-5.4649	APPLEGATE	-0.2246
-4.7421	APPLES	-0.4250
-5.7995	APPLESAUCE	-0.2019
-6.6445	APPLESEED	-0.0184
-5.4758	APPLETON	-0.2139
-5.2033	APPLEWHITE	-0.2644
-5.0036	APPLIANCE	-0.3631
-4.7812	APPLIANCES	-0.3760
-6.1163	APPLICABILITY	-0.3445
-5.0549	APPLICABLE	-0.3623
-5.2193	APPLICANT	-0.2925
-6.4015	APPLICANT'S	-0.0111
-4.6234	APPLICANTS	-0.5804
-5.8234	APPLICANTS'	-0.0187
-4.2015	APPLICATION	-0.6153
-4.2598	APPLICATIONS	-0.6801
-4.1555	APPLIED	-0.6114
-4.5787	APPLIES	-0.6635
-4.5420	APPLY	-0.4347
-4.6193	APPLYING	-0.4290
-5.0974	APPOINT	-0.2142
-4.1807	APPOINTED	-0.4063
-5.2532	APPOINTEE	-0.3220
-5.0838	APPOINTEES	-0.4347
-5.0187	APPOINTING	-0.2596
-4.2460	APPOINTMENT	-0.5822
-4.6802	APPOINTMENTS	-0.5381
-5.3249	APPOINTS	-0.3411
-6.0563	APPORTION	-0.1820
-5.7842	APPORTIONED	-0.2198
-5.9244	APPORTIONING	-0.2057
-5.9042	APPORTIONMENT	-0.2203
-4.8452	APPRAISAL	-0.4683
-5.2758	APPRAISALS	-0.4495
-5.8944	APPRAISE	-0.0941
-5.3147	APPRAISED	-0.4502
-5.6500	APPRAISER	-0.2324
-5.5699	APPRAISERS	-0.2505
-5.6131	APPRAISING	-0.1369
-5.8073	APPRECIABLE	-0.0745
-5.4758	APPRECIABLY	-0.2308
-4.9112	APPRECIATE	-0.3891
-4.6456	APPRECIATED	-0.4123
-4.9152	APPRECIATES	-0.3709
-5.3249	APPRECIATING	-0.2584
-4.6291	APPRECIATION	-0.5921
-5.3223	APPRECIATIVE	-0.2594
-5.7842	APPRECIATIVELY	-0.2340
-5.8073	APPREHEND	-0.1432
-5.2275	APPREHENDED	-0.3394
-5.7281	APPREHENDING	-0.1909
-5.1445	APPREHENSION	-0.4530
-5.4271	APPREHENSIONS	-0.4012
-5.4205	APPREHENSIVE	-0.3971
-5.1878	APPRENTICE	-0.2114
-5.9244	APPRENTICED	-0.4446
-5.5142	APPRENTICES	-0.2579
-5.3833	APPRENTICESHIP	-0.3938
-5.8944	APPRENTICESHIPS	-0.2423
-6.6445	APPRISE	-0.0901
-5.4649	APPRISED	-0.4831
-3.8045	APPROACH	-0.6871
-5.5654	APPROACHABLE	-0.1854
-4.1487	APPROACHED	-0.4078
-4.3203	APPROACHES	-0.5701
-4.4649	APPROACHING	-0.3526
-4.4761	APPROPRIATE	-0.3442
-5.2275	APPROPRIATED	-0.4311
-4.7132	APPROPRIATELY	-0.2537
-6.0162	APPROPRIATENESS	-0.3560
-6.0036	APPROPRIATES	-0.1102
-5.6131	APPROPRIATING	-0.2119
-5.1394	APPROPRIATION	-0.4996
-4.9182	APPROPRIATIONS	-0.5604
-6.0852	APPROPRIATORS	-0.1962
-4.1604	APPROVAL	-0.7506
-5.0331	APPROVALS	-0.4944
-4.8145	APPROVE	-0.2788
-4.0364	APPROVED	-0.5532
-4.9456	APPROVES	-0.3955
-4.8566	APPROVING	-0.3008
-5.5476	APPROVINGLY	-0.3325
-5.4404	APPROXIMATE	-0.1483
-4.3621	APPROXIMATELY	-1.1939
-5.9142	APPROXIMATES	-0.2532
-5.9456	APPROXIMATING	-0.2413
-5.7216	APPROXIMATION	-0.4525
-5.9244	APPS	-0.0652
-5.3716	APRICOT	-0.1892
-5.6500	APRICOTS	-0.2199
-4.0856	APRIL	-0.4654
-5.4271	APRIL'S	-0.2022
-5.3275	APRON	-0.2565
-5.5183	APRONS	-0.2052
-5.7918	APROPOS	-0.2815
-5.9566	APSTAR	-0.4914
-5.1293	APT	-0.3160
-5.2317	APTITUDE	-0.3687
-6.1674	APTIVA	-0.1275
-5.1310	APTLY	-0.3268
-5.6726	AQABA	-0.2148
-5.9456	AQAZADEH	-0.1763
-5.3046	AQUA	-0.1642
-5.3071	AQUACULTURE	-0.2428
-5.8849	AQUAMARINE	-0.0571
-5.0959	AQUARIUM	-0.2900
-5.6446	AQUARIUMS	-0.1701
-6.0162	AQUARIUS	-0.0877
-4.8333	AQUATIC	-0.4639
-5.5183	AQUEDUCT	-0.2054
-6.0036	AQUEDUCTS	-0.1544
-5.6286	AQUIFER	-0.2440
-5.5934	AQUIFERS	-0.2503
-5.7842	AQUILA	-0.1648
-6.2052	AQUILINO	-0.2833
-6.2689	AQUINAS	-0.0519
-5.1310	AQUINO	-0.2523
-5.8234	AQUINO'S	-0.1510
-6.3172	AQUITAINE	-0.0322
-5.2576	AR	-0.1629
-5.5654	ARA	-0.1070
-4.0721	ARAB	-0.6064
-5.9566	ARABELLA	-0.0957
-5.7088	ARABIA	-0.0157
-6.7694	ARABIA'S	0.0000
-5.1840	ARABIAN	-0.1391
-6.1497	ARABIANS	-0.1110
-4.7294	ARABIC	-0.3558
-5.7025	ARABICA	-0.3284
-5.2275	ARABLE	-0.7008
-4.6561	ARABS	-0.4197
-5.9142	ARABS'	-0.0312
-4.1320	ARAFAT	-0.5842
-4.5485	ARAFAT'S	-0.4486
-5.5102	ARAGON	-0.1707
-5.5023	ARAI	-0.1837
-6.0705	ARAKAWA	-0.1812
-5.8487	ARAKI	-0.0894
-6.2689	ARAL	-0.2173
-5.9794	ARAMCO	-0.0980
-5.6668	ARAMIS	-0.3755
-6.2254	ARAMONY	-0.0479
-5.7918	ARAN	-0.1176
-5.6338	ARANA	-0.2364
-5.7088	ARANDA	-0.1805
-5.8849	ARANGO	-0.1143
-6.4015	ARANSAS	-0.0566
-6.0291	ARASKOG	-0.1321
-6.0705	ARATA	-0.2042
-5.8574	ARAU	-0.1097
-5.3833	ARAUJO	-0.2611
-5.8316	ARAYA	-0.1325
-6.3435	ARBA	-0.0173
-6.1327	ARBED	-0.1577
-5.9142	ARBEL	-0.1550
-5.4205	ARBITER	-0.3935
-5.6500	ARBITERS	-0.3736
-5.3745	ARBITRAGE	-0.3351
-6.0291	ARBITRAGERS	-0.1374
-5.1638	ARBITRARILY	-0.1954
-6.0162	ARBITRARINESS	-0.2523
-4.8821	ARBITRARY	-0.3175
-6.0705	ARBITRATE	-0.1064
-5.9913	ARBITRATED	-0.1357
-6.1497	ARBITRATING	-0.0828
-4.6982	ARBITRATION	-0.4808
-5.3803	ARBITRATOR	-0.2635
-6.5062	ARBITRATOR'S	-0.1001
-5.3833	ARBITRATORS	-0.2855
-6.0036	ARBITRON	-0.2101
-6.2052	ARBOGAST	-0.0873
-6.0425	ARBOLEDA	-0.0918
-5.4721	ARBOR	-0.1656
-5.7695	ARBORETUM	-0.2269
-5.3435	ARBOUR	-0.2716
-5.9679	ARBUCKLE	-0.2181
-5.9349	ARBY'S	-0.0944
-4.9544	ARC	-0.3017
-5.0633	ARCADE	-0.3051
-5.5564	ARCADES	-0.2661
-5.4721	ARCADIA	-0.1966
-5.7842	ARCANA	-0.2902
-5.1935	ARCANE	-0.1781
-6.4015	ARCATA	-0.0930
-5.4507	ARCE	-0.1540
-4.6743	ARCH	-0.3977
-4.8113	ARCHAEOLOGICAL	-0.5005
-5.1377	ARCHAEOLOGIST	-0.2132
-4.8300	ARCHAEOLOGISTS	-0.4290
-5.1411	ARCHAEOLOGY	-0.3016
-5.2948	ARCHAIC	-0.1036
-6.0425	ARCHAMBEAU	-0.0378
-5.9244	ARCHANGEL	-0.1266
-4.6239	ARCHBISHOP	-0.4171
-5.2997	ARCHDIOCESE	-0.2172
-6.1859	ARCHDUKE	-0.2099
-5.1916	ARCHED	-0.2436
-5.6338	ARCHENEMY	-0.1963
-5.1005	ARCHEOLOGICAL	-0.3820
-5.4577	ARCHEOLOGY	-0.1895
-4.7038	ARCHER	-0.3738
-5.5390	ARCHER'S	-0.0953
-5.2689	ARCHERY	-0.2092
-5.1859	ARCHES	-0.3089
-5.7623	ARCHETYPAL	-0.0274
-5.7025	ARCHETYPE	-0.2777
-5.5983	ARCHETYPES	-0.2180
-5.5223	ARCHIBALD	-0.1468
-5.0384	ARCHIE	-0.2768
-6.0705	ARCHIMEDES	-0.0617
-5.4046	ARCHING	-0.1258
-5.1343	ARCHIPELAGO	-0.3867
-4.5676	ARCHITECT	-0.3707
-5.9794	ARCHITECT'S	-0.0466
-4.6533	ARCHITECTS	-0.3997
-4.5963	ARCHITECTURAL	-0.3382
-5.5886	ARCHITECTURALLY	-0.1232
-4.4040	ARCHITECTURE	-0.4712
-5.8073	ARCHITECTURES	-0.2263
-5.1514	ARCHIVAL	-0.3041
-4.8746	ARCHIVE	-0.3620
-4.6157	ARCHIVES	-0.4569
-5.3490	ARCHIVIST	-0.2172
-5.5183	ARCHIVISTS	-0.2238
-5.0633	ARCHRIVAL	-0.2134
-5.5983	ARCHRIVALS	-0.1623
-6.0162	ARCHULETA	-0.1170
-5.7995	ARCHWAY	-0.1341
-5.2072	ARCO	-0.2607
-5.8234	ARCO'S	-0.0684
-6.2466	ARCOS	-0.0599
-6.1163	ARCOSANTI	-0.0892
-5.4577	ARCS	-0.2452
-4.8877	ARCTIC	-0.2730
-5.5306	ARDEN	-0.1539
-5.2254	ARDENT	-0.1465
-5.4649	ARDENTLY	-0.1868
-6.4015	ARDMORE	-0.1349
-5.3833	ARDOR	-0.4310
-5.2033	ARDUOUS	-0.2577
-2.8438	ARE	-1.0611
-3.5793	AREA	-0.6646
-5.3408	AREA'S	-0.0671
-3.8496	AREAS	-0.7105
-6.2924	ARELLANES	-0.0395
-5.3774	ARELLANO	-0.2738
-5.8849	AREN	-0.1354
-3.8620	AREN'T	-0.6130
-4.2497	ARENA	-0.5072
-5.5745	ARENA'S	-0.0369
-4.8444	ARENAS	-0.4050
-5.8152	ARENDT	-0.1219
-6.0036	ARENELLA	-0.3885
-5.5063	ARENS	-0.2397
-5.7918	ARES	-0.1399
-5.3490	ARETHA	-0.6550
-5.7695	AREVALO	-0.1703
-6.3435	AREY	-0.1616
-5.8849	ARGENBRIGHT	-0.1333
-6.0705	ARGENT	-0.0462
-4.2854	ARGENTINA	-0.4576
-4.5586	ARGENTINA'S	-0.3633
-6.1859	ARGENTINAS	-0.0518
-4.4387	ARGENTINE	-0.3681
-5.0591	ARGENTINES	-0.2377
-5.3249	ARGENTINIAN	-0.1255
-6.0425	ARGENTINIANS	-0.0736
-5.7415	ARGO	-0.2277
-5.8487	ARGON	-0.1482
-6.7694	ARGONAUTS	-0.0278
-6.2466	ARGONNE	-0.1207
-5.9244	ARGOSY	-0.1464
-5.7842	ARGOT	-0.1739
-5.9142	ARGUABLE	-0.1445
-4.6539	ARGUABLY	-0.3793
-4.3551	ARGUE	-0.6044
-3.8350	ARGUED	-0.8429
-5.7842	ARGUELLO	-0.1278
-4.1594	ARGUES	-0.6942
-6.0705	ARGUETA	-0.0545
-4.1017	ARGUING	-0.9129
-4.2410	ARGUMENT	-0.5886
-5.6131	ARGUMENTATIVE	-0.1089
-4.3244	ARGUMENTS	-0.6424
-5.7281	ARGUS	-0.1496
-5.6556	ARGYLE	-0.1896
-6.0563	ARGYLL	-0.1526
-5.1244	ARI	-0.2647
-5.2317	ARIA	-0.2803
-5.9244	ARIADNE	-0.1001
-5.8664	ARIAN	-0.0705
-5.6612	ARIANA	-0.1891
-5.3893	ARIANE	-0.3797
-5.5564	ARIANESPACE	-0.3031
-5.7281	ARIANNA	-0.2548
-4.9092	ARIAS	-0.3522
-5.1674	ARID	-0.2639
-5.3490	ARIE	-0.3370
-4.7321	ARIEL	-0.4488
-5.9349	ARIES	-0.0864
-5.3893	ARIS	-0.1927
-4.9381	ARISE	-0.5456
-5.8487	ARISEN	-0.1974
-4.9203	ARISES	-0.5445
-4.6328	ARISING	-0.8929
-5.9794	ARISON	-0.1239
-5.5223	ARISTA	-0.2985
-4.7203	ARISTIDE	-0.3793
-5.1377	ARISTIDE'S	-0.2543
-5.4238	ARISTOCRACY	-0.3244
-5.4078	ARISTOCRAT	-0.1965
-5.3658	ARISTOCRATIC	-0.0742
-5.3355	ARISTOCRATS	-0.2842
-5.5102	ARISTOTLE	-0.1913
-5.3381	ARITHMETIC	-0.2362
-5.6338	ARIZMENDI	-0.1613
-4.1914	ARIZONA	-0.4356
-4.7229	ARIZONA'S	-0.2304
-5.9913	ARIZONAN	-0.0995
-5.5654	ARIZONANS	-0.2042
-5.8664	ARJO	-0.3210
-5.4507	ARK	-0.2055
-5.6612	ARKADY	-0.2183
-6.0162	ARKANSANS	-0.1130
-4.5511	ARKANSAS	-0.3743
-5.5433	ARKANSAS'	-0.0725
-5.5839	ARKIN	-0.1978
-6.0291	ARLEDGE	-0.1124
-5.4795	ARLEN	-0.2986
-5.3954	ARLENE	-0.0766
-6.1005	ARLETTE	-0.1536
-4.9445	ARLINGTON	-0.2772
-6.0291	ARLINGTON'S	-0.0087
-4.1784	ARM	-0.4561
-5.7483	ARM'S	-0.1879
-5.4438	ARMADA	-0.2196
-5.8574	ARMADILLO	-0.1045
-5.7216	ARMADILLOS	-0.1997
-5.2112	ARMAGEDDON	-0.3474
-5.3601	ARMAMENT	-0.2127
-5.1005	ARMAMENTS	-0.3455
-5.7025	ARMAN	-0.2351
-5.3658	ARMAND	-0.1546
-4.9317	ARMANDO	-0.2857
-5.0493	ARMANI	-0.2347
-5.6081	ARMAS	-0.1405
-6.1163	ARMATO	-0.1073
-6.0852	ARMBAND	-0.1452
-5.7995	ARMBANDS	-0.2588
-6.2254	ARMBRISTER	-0.1721
-5.2828	ARMCHAIR	-0.1870
-5.6032	ARMCHAIRS	-0.2227
-3.9710	ARMED	-0.7022
-5.5745	ARMEN	-0.2725
-4.8906	ARMENIA	-0.3304
-5.2876	ARMENIA'S	-0.1757
-4.9012	ARMENIAN	-0.2493
-5.3863	ARMENIANS	-0.2834
-6.4015	ARMER	-0.0099
-4.9092	ARMEY	-0.3228
-5.6338	ARMEY'S	-0.1276
-4.7681	ARMIES	-0.4676
-5.4542	ARMIN	-0.2812
-5.1955	ARMING	-0.3325
-5.6843	ARMISTEAD	-0.2999
-5.5348	ARMISTICE	-0.2981
-5.2948	ARMITAGE	-0.2499
-5.8316	ARMON	-0.4659
-6.0705	ARMONK	-0.3902
-4.8522	ARMOR	-0.3634
-4.6381	ARMORED	-0.6586
-5.7347	ARMORIES	-0.2901
-5.3172	ARMORY	-0.2840
-5.3984	ARMOUR	-0.2190
-5.8574	ARMPIT	-0.1644
-5.9794	ARMPITS	-0.2413
-5.9794	ARMREST	-0.1857
-6.0036	ARMRESTS	-0.1813
-4.0127	ARMS	-0.6082
-5.4271	ARMSTEAD	-0.2262
-4.3893	ARMSTRONG	-0.4182
-5.1656	ARMSTRONG'S	-0.1114
-3.9006	ARMY	-0.6092
-5.1445	ARMY'S	-0.1553
-5.9142	ARN	-0.1870
-5.5983	ARNALDO	-0.1744
-5.1585	ARNAUD	-0.5324
-5.6843	ARNAULT	-0.1767
-5.9349	ARNAZ	-0.1348
-5.7995	ARNDT	-0.1515
-5.4205	ARNE	-0.1560
-5.9349	ARNELL	-0.2341
-6.0852	ARNELLE	-0.2696
-6.0563	ARNESEN	-0.1206
-5.5564	ARNETT	-0.2445
-6.5934	ARNHOLD	-0.2687
-5.3328	ARNIE	-0.1848
-5.7553	ARNO	-0.1306
-4.4337	ARNOLD	-0.3842
-5.5433	ARNOLD'S	-0.0192
-6.0036	ARNOT	-0.1400
-5.3490	ARNOTT	-0.2132
-6.1674	ARNOTTS	-0.0736
-5.8849	ARNULFO	-0.2040
-5.9794	ARO	-0.0585
-5.0591	AROMA	-0.3364
-5.3198	AROMAS	-0.3057
-5.2924	AROMATIC	-0.1358
-5.3863	ARON	-0.2148
-5.4404	ARONSON	-0.3081
-6.3715	AROS	-0.0489
-4.5348	AROSE	-0.7771
-3.3675	AROUND	-0.6619
-5.8152	AROUSAL	-0.1700
-5.4984	AROUSE	-0.1856
-4.8350	AROUSED	-0.4225
-5.6234	AROUSES	-0.1505
-5.2598	AROUSING	-0.2533
-5.9244	ARP	-0.1386
-6.0563	ARPANET	-0.1686
-6.8486	ARPS	0.0000
-5.7025	ARQUETTE	-0.1374
-5.6964	ARRAIGNED	-0.3211
-5.2598	ARRAIGNMENT	-0.4020
-6.0162	ARRAIGNMENTS	-0.1664
-4.9566	ARRANGE	-0.2326
-4.2499	ARRANGED	-0.5669
-4.3960	ARRANGEMENT	-0.5459
-4.3465	ARRANGEMENTS	-0.6297
-5.5934	ARRANGER	-0.2097
-5.2997	ARRANGES	-0.2332
-4.8849	ARRANGING	-0.2872
-4.7835	ARRAY	-0.6304
-5.2254	ARRAYED	-0.5332
-5.5348	ARRAYS	-0.3341
-5.1897	ARREARS	-0.4351
-5.9794	ARREDONDO	-0.1971
-4.1359	ARREST	-0.5017
-4.2011	ARRESTED	-0.5081
-4.7511	ARRESTING	-0.3751
-4.6007	ARRESTS	-0.5509
-5.9042	ARRHYTHMIA	-0.2144
-5.7088	ARRIETA	-0.1984
-5.6964	ARRIGO	-0.7467
-5.3275	ARRINGTON	-0.2166
-5.9679	ARRIOLA	-0.1035
-4.3099	ARRIVAL	-0.4854
-4.8858	ARRIVALS	-0.4348
-4.4620	ARRIVE	-0.6292
-3.5490	ARRIVED	-1.0777
-4.3216	ARRIVES	-0.7757
-4.3551	ARRIVING	-0.6835
-4.8325	ARROGANCE	-0.4715
-4.8435	ARROGANT	-0.2460
-5.6081	ARROGANTLY	-0.0732
-5.0425	ARROW	-0.2276
-5.5983	ARROWHEAD	-0.2652
-5.9566	ARROWHEADS	-0.1944
-5.0793	ARROWS	-0.3193
-4.7354	ARROYO	-0.3751
-5.5654	ARROYO'S	-0.1466
-4.4791	ARSENAL	-0.4734
-5.2924	ARSENALS	-0.3448
-5.8574	ARSENAULT	-0.2477
-5.0265	ARSENIC	-0.3738
-6.8486	ARSENIDE	0.0000
-5.6726	ARSENIO	-0.2508
-4.8821	ARSON	-0.4438
-5.8316	ARSONIST	-0.1525
-5.4205	ARSONISTS	-0.2817
-5.8664	ARSONS	-0.2339
-3.8004	ART	-0.5695
-5.6612	ART'S	-0.0309
-5.6392	ARTEAGA	-0.1748
-5.5699	ARTERIAL	-0.2163
-5.1327	ARTERIES	-0.3781
-5.1147	ARTERY	-0.3648
-5.3954	ARTFUL	-0.0784
-5.2576	ARTFULLY	-0.1007
-5.5348	ARTHRITIC	-0.2303
-5.0213	ARTHRITIS	-0.3424
-4.3490	ARTHUR	-0.3396
-5.5886	ARTHUR'S	-0.0533
-6.1327	ARTHURIAN	-0.1468
-5.7415	ARTHURS	-0.0965
-5.4271	ARTICHOKE	-0.2279
-5.4337	ARTICHOKES	-0.2113
-4.3718	ARTICLE	-0.4655
-6.6445	ARTICLE'S	0.0000
-4.3797	ARTICLES	-0.5567
-5.0023	ARTICULATE	-0.2259
-5.1585	ARTICULATED	-0.3179
-5.9042	ARTICULATES	-0.2025
-5.5654	ARTICULATING	-0.2817
-5.6964	ARTICULATION	-0.3375
-5.5983	ARTIE	-0.1164
-5.3046	ARTIFACT	-0.2846
-4.6606	ARTIFACTS	-0.5173
-5.5223	ARTIFICE	-0.2845
-4.5357	ARTIFICIAL	-0.3506
-4.9349	ARTIFICIALLY	-0.3130
-4.5654	ARTILLERY	-0.5709
-5.5699	ARTIS	-0.2627
-5.3071	ARTISAN	-0.1912
-5.1603	ARTISANS	-0.2928
-4.2909	ARTIST	-0.3460
-5.3172	ARTIST'S	-0.0613
-4.3430	ARTISTIC	-0.3658
-5.2510	ARTISTICALLY	-0.2036
-5.0061	ARTISTRY	-0.3887
-4.1920	ARTISTS	-0.5500
-5.1585	ARTISTS'	-0.1501
-6.9455	ARTOIS	0.0000
-4.3365	ARTS	-0.4027
-5.5699	ARTSY	-0.0649
-5.2380	ARTUR	-0.3188
-5.0265	ARTURO	-0.2730
-4.8664	ARTWORK	-0.3949
-5.0278	ARTWORKS	-0.3842
-5.4649	ARTY	-0.0763
-5.5654	ARUBA	-0.1849
-5.0507	ARUM	-0.3102
-6.3435	ARUNDEL	-0.0186
-5.8755	ARVIN	-0.1609
-5.8152	ARVIND	-0.1819
-5.8234	ARY	-0.1818
-5.4577	ARYAN	-0.2528
-6.0425	ARZAMAS	-0.3124
-2.6791	AS	-0.7276
-5.2805	ASA	-0.2837
-5.1179	ASAHARA	-0.3275
-5.2112	ASAHI	-0.3551
-5.8755	ASARCO	-0.1663
-4.8169	ASBESTOS	-0.4358
-6.0036	ASBESTOSIS	-0.1934
-5.6286	ASBURY	-0.3075
-6.0036	ASCAP	-0.0991
-5.2900	ASCEND	-0.2940
-5.8944	ASCENDANCE	-0.2536
-5.4109	ASCENDANCY	-0.3624
-5.7695	ASCENDANT	-0.1268
-5.2112	ASCENDED	-0.6348
-5.3716	ASCENDING	-0.2584
-5.6612	ASCENDS	-0.3476
-5.1179	ASCENSION	-0.4790
-4.9588	ASCENT	-0.4824
-5.7842	ASCERTAIN	-0.1800
-5.7088	ASCERTAINED	-0.2716
-6.0705	ASCERTAINING	-0.2136
-5.7415	ASCETIC	-0.0866
-5.9142	ASCH	-0.1560
-5.9456	ASCII	-0.0551
-5.7347	ASCOT	-0.1235
-5.8152	ASCRIBE	-0.1820
-5.3198	ASCRIBED	-0.5820
-5.5792	ASDA	-0.2102
-5.8664	ASEA	-0.4663
-4.4209	ASEAN	-0.4903
-4.7094	ASH	-0.3642
-5.3716	ASHAMED	-0.5907
-5.7995	ASHBROOK	-0.1033
-5.8316	ASHBURN	-0.2092
-6.5934	ASHBURY	-0.0445
-5.1411	ASHBY	-0.2503
-4.5627	ASHCROFT	-0.4014
-5.5520	ASHDOWN	-0.2132
-5.3517	ASHE	-0.1739
-5.9913	ASHE'S	-0.0494
-5.6843	ASHEN	-0.2596
-5.3658	ASHER	-0.2403
-4.8300	ASHES	-0.3714
-5.6843	ASHEVILLE	-0.1684
-5.5699	ASHFORD	-0.2245
-5.9142	ASHISH	-0.3393
-5.5792	ASHLAND	-0.1925
-4.7082	ASHLEY	-0.2719
-5.9142	ASHLEY'S	-0.0188
-5.7768	ASHMORE	-0.3207
-5.4404	ASHOK	-0.2424
-4.9794	ASHORE	-0.5069
-5.3716	ASHRAWI	-0.2419
-5.2689	ASHTON	-0.1966
-5.7281	ASHTRAY	-0.1882
-5.6032	ASHTRAYS	-0.2515
-5.7995	ASHWORTH	-0.1591
-4.1558	ASIA	-0.4296
-4.5934	ASIA'S	-0.3999
-4.0444	ASIAN	-0.5526
-4.8774	ASIANS	-0.3881
-5.7483	ASIATIC	-0.1077
-5.8234	ASIAWEEK	-0.1664
-4.1332	ASIDE	-0.4275
-5.3687	ASIDES	-0.3465
-6.2052	ASIMOV	-0.0756
-5.9794	ASININE	-0.0682
-4.3002	ASK	-0.3969
-6.2924	ASKANCE	-0.1558
-3.4569	ASKED	-0.5945
-5.2948	ASKEW	-0.2566
-5.9566	ASKIN	-0.2359
-3.9809	ASKING	-0.6656
-5.9794	ASKINS	-0.1313
-4.1182	ASKS	-0.5020
-5.0662	ASLEEP	-0.4220
-5.6392	ASMARA	-0.2228
-5.9244	ASMUSSEN	-0.1932
-6.0852	ASNER	-0.1106
-5.8073	ASP	-0.0833
-5.0913	ASPARAGUS	-0.2689
-6.1005	ASPARTAME	-0.0888
-4.4391	ASPECT	-0.6999
-4.3647	ASPECTS	-0.7355
-5.1974	ASPEN	-0.2263
-6.1005	ASPER	-0.2214
-6.0705	ASPERSIONS	-0.2282
-4.9865	ASPHALT	-0.2797
-5.8944	ASPIN	-0.1840
-5.9566	ASPINALL	-0.1128
-5.7347	ASPIRANT	-0.1363
-5.4404	ASPIRANTS	-0.2903
-6.4337	ASPIRATED	-0.0169
-5.0913	ASPIRATION	-0.4830
-4.7242	ASPIRATIONS	-0.5774
-5.2554	ASPIRE	-0.5842
-5.4907	ASPIRED	-0.5621
-5.2359	ASPIRES	-0.9128
-5.0913	ASPIRIN	-0.3670
-4.9142	ASPIRING	-0.2597
-5.3984	ASS	-0.2268
-4.7126	ASSAD	-0.3563
-5.1878	ASSAD'S	-0.1933
-5.5839	ASSAF	-0.1602
-5.9679	ASSAIL	-0.0911
-5.4271	ASSAILANT	-0.2117
-6.5476	ASSAILANT'S	0.0000
-5.1394	ASSAILANTS	-0.3636
-4.8964	ASSAILED	-0.3767
-5.4795	ASSAILING	-0.2358
-6.2924	ASSANTE	-0.0175
-5.1428	ASSASSIN	-0.3009
-6.4684	ASSASSIN'S	-0.0913
-5.7995	ASSASSINATE	-0.0502
-5.0200	ASSASSINATED	-0.3171
-5.7415	ASSASSINATING	-0.1427
-4.6855	ASSASSINATION	-0.4369
-5.0974	ASSASSINATIONS	-0.3739
-5.1211	ASSASSINS	-0.3235
-4.2807	ASSAULT	-0.6005
-4.9413	ASSAULTED	-0.3637
-5.3046	ASSAULTING	-0.2950
-4.6921	ASSAULTS	-0.5441
-5.9042	ASSAY	-0.1045
-5.3517	ASSEMBLAGE	-0.4094
-5.1277	ASSEMBLE	-0.2341
-4.4435	ASSEMBLED	-0.4904
-5.8944	ASSEMBLER	-0.2181
-5.6784	ASSEMBLERS	-0.2748
-5.3545	ASSEMBLES	-0.2489
-5.0793	ASSEMBLIES	-0.4245
-4.9467	ASSEMBLING	-0.3299
-4.2092	ASSEMBLY	-0.4773
-5.7347	ASSEMBLY'S	-0.0885
-5.0577	ASSEMBLYMAN	-0.3778
-5.7281	ASSEMBLYMEN	-0.1575
-5.6182	ASSEMBLYWOMAN	-0.2798
-5.4577	ASSENT	-0.4561
-4.9467	ASSERT	-0.4481
-4.2893	ASSERTED	-0.7216
-4.5915	ASSERTING	-0.7272
-4.5949	ASSERTION	-0.6495
-4.7717	ASSERTIONS	-0.6461
-5.2948	ASSERTIVE	-0.1332
-5.9566	ASSERTIVELY	-0.0466
-5.5520	ASSERTIVENESS	-0.2857
-4.7082	ASSERTS	-0.5691
-6.0036	ASSES	-0.1807
-4.9854	ASSESS	-0.2361
-4.7895	ASSESSED	-0.4433
-5.4946	ASSESSES	-0.2226
-4.9511	ASSESSING	-0.3194
-4.2840	ASSESSMENT	-0.6276
-4.7374	ASSESSMENTS	-0.5872
-5.8487	ASSESSOR	-0.1500
-5.7918	ASSESSORS	-0.1511
-4.3294	ASSET	-0.5954
-4.0775	ASSETS	-0.6945
-5.9244	ASSICURAZIONI	-0.5158
-6.0852	ASSIDUOUS	-0.0620
-5.3833	ASSIDUOUSLY	-0.2105
-5.2948	ASSIGN	-0.2032
-4.3756	ASSIGNED	-0.4520
-5.1550	ASSIGNING	-0.2195
-4.6213	ASSIGNMENT	-0.5181
-4.6589	ASSIGNMENTS	-0.5512
-5.3490	ASSIGNS	-0.2284
-5.8234	ASSIMILATE	-0.1385
-5.4946	ASSIMILATED	-0.2806
-5.8487	ASSIMILATING	-0.1247
-5.3046	ASSIMILATION	-0.3995
-5.8574	ASSISI	-0.1211
-4.6940	ASSIST	-0.2466
-4.2120	ASSISTANCE	-0.6612
-3.7492	ASSISTANT	-0.6780
-4.7242	ASSISTANTS	-0.3662
-4.3878	ASSISTED	-0.4691
-4.8513	ASSISTING	-0.3046
-4.9938	ASSISTS	-0.4291
-5.7918	ASSOCATION	-0.2289
-4.1112	ASSOCIATE	-0.5720
-6.1327	ASSOCIATE'S	-0.1421
-4.1195	ASSOCIATED	-0.5833
-4.3124	ASSOCIATES	-0.4834
-5.7483	ASSOCIATES'	-0.0169
-5.4404	ASSOCIATING	-0.3371
-3.8748	ASSOCIATION	-0.6006
-4.9102	ASSOCIATION'S	-0.1704
-4.4930	ASSOCIATIONS	-0.5392
-5.0200	ASSORTED	-0.0629
-5.1394	ASSORTMENT	-0.6394
-5.9456	ASSUAGE	-0.0989
-5.7623	ASSUAGED	-0.2891
-4.7367	ASSUME	-0.4218
-4.3389	ASSUMED	-0.5583
-4.7007	ASSUMES	-0.4727
-4.4404	ASSUMING	-0.5353
-4.8367	ASSUMPTION	-0.5295
-4.8637	ASSUMPTIONS	-0.5539
-4.7442	ASSURANCE	-0.4850
-4.6680	ASSURANCES	-0.7142
-5.1211	ASSURE	-0.2075
-4.1637	ASSURED	-0.4483
-5.8316	ASSUREDLY	-0.1206
-4.9478	ASSURES	-0.4142
-4.7574	ASSURING	-0.3795
-6.0162	ASSYRIAN	-0.0659
-5.8944	ASTA	-0.0603
-5.8401	ASTAIRE	-0.0692
-5.8234	ASTER	-0.1049
-5.6338	ASTERISK	-0.1288
-5.2296	ASTEROID	-0.2049
-6.7694	ASTEROID'S	0.0000
-5.3517	ASTEROIDS	-0.2893
-5.9566	ASTERS	-0.1301
-4.8435	ASTHMA	-0.4200
-5.6843	ASTHMATIC	-0.1070
-5.7695	ASTHMATICS	-0.1823
-5.9794	ASTIN	-0.1629
-5.6726	ASTLE	-0.1171
-4.9500	ASTON	-0.6564
-6.2254	ASTONISH	-0.1111
-5.1840	ASTONISHED	-0.3188
-5.0591	ASTONISHING	-0.1512
-5.3893	ASTONISHINGLY	-0.1123
-5.5023	ASTONISHMENT	-0.3686
-5.5433	ASTOR	-0.1739
-5.6843	ASTORIA	-0.1705
-5.4795	ASTOUNDED	-0.3357
-5.2712	ASTOUNDING	-0.1308
-5.8234	ASTOUNDINGLY	-0.0682
-5.1260	ASTRA	-0.3197
-5.8664	ASTRA'S	-0.0430
-6.1163	ASTRAKHAN	-0.1169
-5.8152	ASTRAL	-0.1202
-5.5886	ASTRAY	-0.3150
-5.5520	ASTRID	-0.1965
-5.3302	ASTRIDE	-0.4767
-5.7347	ASTRINGENT	-0.0732
-5.2805	ASTRO	-0.2121
-5.7025	ASTRODOME	-0.0837
-5.8316	ASTROLOGER	-0.1584
-5.7842	ASTROLOGERS	-0.1632
-5.6784	ASTROLOGICAL	-0.1593
-5.5520	ASTROLOGY	-0.1726
-4.8983	ASTRONAUT	-0.3487
-6.4015	ASTRONAUT'S	0.0000
-6.1859	ASTRONAUTICS	-0.0685
-4.8566	ASTRONAUTS	-0.3582
-6.0162	ASTRONAUTS'	0.0000
-5.2532	ASTRONOMER	-0.2503
-4.8610	ASTRONOMERS	-0.3852
-5.0507	ASTRONOMICAL	-0.2303
-6.0425	ASTRONOMICALLY	-0.1157
-5.1244	ASTRONOMY	-0.2879
-5.6784	ASTROPHYSICIST	-0.1955
-5.8755	ASTROPHYSICS	-0.1290
-4.8793	ASTROS	-0.2324
-5.6903	ASTROTURF	-0.1815
-5.3355	ASTUTE	-0.1312
-5.8234	ASTUTELY	-0.0249
-5.8152	ASUNCION	-0.1473
-5.8487	ASUNDER	-0.2915
-4.5420	ASYLUM	-0.5353
-5.4795	ASYMMETRICAL	-0.0923
-5.8316	ASYMMETRY	-0.1906
-5.9794	ASYMPTOMATIC	-0.1417
-5.7151	ASYNCHRONOUS	-0.6041
-2.7577	AT	-0.8626
-5.7281	ATA	-0.0599
-5.2805	ATALANTA	-0.3294
-5.6032	ATARI	-0.1892
-5.6668	ATATURK	-0.1689
-5.8849	ATATURK'S	-0.0647
-5.8664	ATCHISON	-0.1492
-6.0291	ATCHLEY	-0.1299
-4.5542	ATE	-0.4307
-5.5654	ATHEISM	-0.3250
-5.4371	ATHEIST	-0.1678
-6.0162	ATHEISTIC	-0.0918
-5.5564	ATHEISTS	-0.2393
-5.5792	ATHENA	-0.1528
-6.1005	ATHENEUM	-0.1281
-5.9042	ATHENIAN	-0.0335
-5.8849	ATHENIANS	-0.0778
-4.6629	ATHENS	-0.3227
-5.7415	ATHEROSCLEROSIS	-0.2471
-5.1195	ATHERTON	-0.2697
-4.5365	ATHLETE	-0.4186
-5.5433	ATHLETE'S	-0.0768
-4.2136	ATHLETES	-0.6041
-5.3071	ATHLETES'	-0.1225
-4.2273	ATHLETIC	-0.4787
-5.5609	ATHLETICALLY	-0.2340
-5.2254	ATHLETICISM	-0.3618
-4.5915	ATHLETICS	-0.3950
-5.9349	ATIENZA	-0.2155
-6.0162	ATKIN	-0.1238
-4.9644	ATKINS	-0.3007
-4.9854	ATKINSON	-0.3144
-5.8944	ATKINSON'S	-0.0148
-3.9319	ATLANTA	-0.4330
-4.6462	ATLANTA'S	-0.2408
-5.8073	ATLANTAN	-0.0381
-5.4205	ATLANTANS	-0.1976
-4.5146	ATLANTIC	-0.2964
-6.2689	ATLANTIC'S	-0.0059
-6.2052	ATLANTICO	-0.0575
-5.0793	ATLANTIS	-0.3075
-5.7281	ATLANTIS'	-0.2365
-4.8737	ATLAS	-0.2855
-5.8487	ATLASES	-0.1101
-5.8849	ATLER	-0.1274
-6.0425	ATMEL	-0.2077
-4.2885	ATMOSPHERE	-0.5534
-4.8619	ATMOSPHERIC	-0.3262
-5.7415	ATMOSPHERICS	-0.2065
-5.5390	ATOLL	-0.2262
-5.1859	ATOM	-0.2953
-4.6435	ATOMIC	-0.5454
-5.0898	ATOMS	-0.3828
-5.8755	ATONAL	-0.1113
-5.8849	ATONE	-0.3345
-5.5792	ATONEMENT	-0.2432
-4.2037	ATOP	-0.6034
-4.9759	ATP	-0.3805
-6.1163	ATRIA	-0.1467
-5.3573	ATRIUM	-0.2695
-5.4577	ATROCIOUS	-0.1515
-4.7688	ATROCITIES	-0.6066
-5.3046	ATROCITY	-0.3605
-5.9794	ATROPHIED	-0.1527
-5.7088	ATROPHY	-0.2730
-5.5839	ATSUSHI	-0.2345
-5.1310	ATTA	-0.3294
-4.9759	ATTACH	-0.3990
-5.4141	ATTACHE	-0.2684
-4.1744	ATTACHED	-0.6405
-4.8291	ATTACHES	-0.6106
-5.2172	ATTACHING	-0.3147
-4.9244	ATTACHMENT	-0.4610
-5.2152	ATTACHMENTS	-0.4426
-3.8952	ATTACK	-0.5946
-4.0780	ATTACKED	-0.4987
-5.0778	ATTACKER	-0.2208
-4.8137	ATTACKERS	-0.3494
-4.3476	ATTACKING	-0.3808
-4.0154	ATTACKS	-0.6628
-5.2972	ATTAIN	-0.2066
-5.5745	ATTAINABLE	-0.2968
-4.9794	ATTAINED	-0.3785
-5.4337	ATTAINING	-0.2279
-5.6556	ATTAINMENT	-0.3352
-5.8944	ATTAINS	-0.1878
-5.9794	ATTANASIO	-0.1743
-5.8664	ATTAR	-0.1548
-3.9862	ATTEMPT	-0.7504
-4.1674	ATTEMPTED	-0.6080
-4.4046	ATTEMPTING	-0.8345
-4.0338	ATTEMPTS	-0.8910
-6.0705	ATTENBOROUGH	-0.0951
-4.6096	ATTEND	-0.3186
-4.4553	ATTENDANCE	-0.5464
-5.1310	ATTENDANT	-0.1389
-5.0868	ATTENDANTS	-0.2030
-6.4337	ATTENDANTS'	-0.0215
-3.8593	ATTENDED	-0.6606
-6.0036	ATTENDEE	-0.1270
-5.1480	ATTENDEES	-0.3468
-4.2883	ATTENDING	-0.5253
-4.8896	ATTENDS	-0.2971
-4.0994	ATTENTION	-0.6920
-5.4832	ATTENTIONS	-0.3648
-5.2402	ATTENTIVE	-0.2108
-5.6392	ATTENTIVELY	-0.2664
-5.8849	ATTENTIVENESS	-0.2932
-5.8401	ATTENUATED	-0.0587
-5.2317	ATTEST	-0.4479
-5.5023	ATTESTED	-0.6508
-5.4613	ATTESTING	-0.8894
-5.3046	ATTESTS	-0.7878
-5.1840	ATTIC	-0.2350
-5.6903	ATTICA	-0.1833
-5.7415	ATTICS	-0.2813
-5.9456	ATTICUS	-0.2253
-5.3302	ATTILA	-0.3195
-4.9072	ATTIRE	-0.4117
-5.4507	ATTIRED	-0.2981
-4.0971	ATTITUDE	-0.6754
-4.5118	ATTITUDES	-0.6407
-5.9913	ATTITUDINAL	-0.2066
-5.9566	ATTLEBORO	-0.1436
-3.7837	ATTORNEY	-0.5910
-5.5023	ATTORNEY'S	-0.1500
-4.2733	ATTORNEYS	-0.5693
-5.5983	ATTORNEYS'	-0.2043
-4.6462	ATTRACT	-0.3354
-4.2292	ATTRACTED	-0.6206
-4.5582	ATTRACTING	-0.4594
-4.6291	ATTRACTION	-0.4847
-4.7268	ATTRACTIONS	-0.4947
-4.5273	ATTRACTIVE	-0.3303
-5.5390	ATTRACTIVELY	-0.2497
-5.3223	ATTRACTIVENESS	-0.4963
-4.6419	ATTRACTS	-0.4127
-5.2402	ATTRIBUTABLE	-0.7260
-4.8916	ATTRIBUTE	-0.5254
-4.0717	ATTRIBUTED	-0.8620
-4.5676	ATTRIBUTES	-0.6141
-5.0823	ATTRIBUTING	-0.6069
-5.6726	ATTRIBUTION	-0.2461
-5.3172	ATTRITION	-0.2835
-5.3147	ATTUNED	-0.5924
-6.1327	ATTWOOD	-0.1395
-5.3954	ATWATER	-0.1987
-5.9794	ATWELL	-0.1565
-5.1462	ATWOOD	-0.2804
-5.8664	ATX	-0.3528
-5.5609	ATYPICAL	-0.1276
-4.8002	AU	-0.3224
-5.7842	AUBIN	-0.1557
-5.3517	AUBREY	-0.1869
-5.9244	AUBRY	-0.1425
-4.8610	AUBURN	-0.3443
-6.0425	AUCH	-0.1574
-5.0124	AUCKLAND	-0.2553
-6.1163	AUCOIN	-0.1253
-4.3923	AUCTION	-0.5370
-6.4015	AUCTION'S	-0.0130
-5.1211	AUCTIONED	-0.4009
-5.3630	AUCTIONEER	-0.1762
-5.3046	AUCTIONEERS	-0.3239
-5.4649	AUCTIONING	-0.2810
-4.7469	AUCTIONS	-0.5302
-6.1497	AUD	-0.0504
-5.3601	AUDACIOUS	-0.1113
-5.4685	AUDACITY	-0.3311
-5.8944	AUDEN	-0.0529
-5.5433	AUDETTE	-0.1408
-5.0577	AUDI	-0.2900
-5.9349	AUDI'S	-0.0164
-5.2510	AUDIBLE	-0.2137
-5.8574	AUDIBLY	-0.1122
-4.2086	AUDIENCE	-0.4834
-6.0291	AUDIENCE'S	-0.0468
-4.3710	AUDIENCES	-0.6200
-4.4627	AUDIO	-0.4972
-5.9566	AUDIOTAPE	-0.0946
-5.6726	AUDIOTAPES	-0.3159
-5.4078	AUDIOVISUAL	-0.2224
-4.6927	AUDIT	-0.4180
-5.2132	AUDITED	-0.3102
-4.9182	AUDITING	-0.3593
-5.0778	AUDITION	-0.3300
-5.3745	AUDITIONED	-0.3516
-5.4613	AUDITIONING	-0.3321
-5.2576	AUDITIONS	-0.4477
-5.1067	AUDITOR	-0.3204
-6.0852	AUDITOR'S	-0.1140
-4.8575	AUDITORIUM	-0.4173
-5.6081	AUDITORIUMS	-0.3268
-4.8728	AUDITORS	-0.4116
-6.0425	AUDITORS'	-0.1236
-5.7216	AUDITORY	-0.1309
-4.9656	AUDITS	-0.4919
-5.0439	AUDREY	-0.1853
-5.4946	AUDUBON	-0.1919
-5.8073	AUER	-0.1477
-5.2554	AUERBACH	-0.2418
-5.5745	AUG	-0.4979
-5.6286	AUGER	-0.1889
-5.7025	AUGMENT	-0.1392
-5.8849	AUGMENTATION	-0.1316
-5.2621	AUGMENTED	-0.4032
-5.6726	AUGMENTING	-0.2074
-5.9794	AUGSBURG	-0.1415
-5.7695	AUGUR	-0.3983
-5.5609	AUGURS	-0.6234
-4.0927	AUGUST	-0.4534
-5.6032	AUGUST'S	-0.0931
-4.8737	AUGUSTA	-0.3363
-5.8849	AUGUSTA'S	-0.0609
-5.6182	AUGUSTE	-0.1714
-5.2805	AUGUSTIN	-0.1534
-5.1514	AUGUSTINE	-0.1869
-5.2213	AUGUSTO	-0.1871
-5.5886	AUGUSTUS	-0.1167
-5.6964	AULD	-0.2514
-6.0705	AULETTA	-0.1097
-5.9913	AULT	-0.0938
-5.0720	AUNG	-0.4292
-4.6946	AUNT	-0.2389
-6.2924	AUNT'S	-0.0533
-5.6081	AUNTIE	-0.1847
-5.3573	AUNTS	-0.3242
-4.8539	AURA	-0.4690
-5.6612	AURAL	-0.0480
-5.4109	AURELIO	-0.1641
-5.2621	AURIEMMA	-0.2838
-5.1480	AURORA	-0.1999
-5.6964	AUS	-0.2414
-5.1711	AUSCHWITZ	-0.3173
-5.6392	AUSMUS	-0.1649
-5.4015	AUSPICES	-0.3476
-5.5348	AUSPICIOUS	-0.1661
-5.1083	AUSSIE	-0.1028
-5.8849	AUST	-0.4595
-5.4946	AUSTEN	-0.0828
-5.7918	AUSTEN'S	-0.0911
-5.8944	AUSTER	-0.0998
-5.1859	AUSTERE	-0.1401
-4.8283	AUSTERITY	-0.5720
-4.2031	AUSTIN	-0.3641
-5.2621	AUSTIN'S	-0.0464
-5.8401	AUSTRAL	-0.1447
-6.0036	AUSTRALASIA	-0.1127
-4.0737	AUSTRALIA	-0.5281
-4.3004	AUSTRALIA'S	-0.4158
-4.0348	AUSTRALIAN	-0.4683
-4.7717	AUSTRALIANS	-0.3284
-5.9244	AUSTRALOPITHECUS	-0.2722
-4.4585	AUSTRIA	-0.4538
-4.7483	AUSTRIA'S	-0.3024
-4.4638	AUSTRIAN	-0.3341
-5.1428	AUSTRIANS	-0.2218
-5.9913	AUSTRO	-0.4632
-4.8610	AUTHENTIC	-0.1644
-5.7088	AUTHENTICALLY	-0.0387
-6.1005	AUTHENTICATE	-0.0886
-5.5520	AUTHENTICATED	-0.2042
-5.9456	AUTHENTICATING	-0.1940
-5.4109	AUTHENTICATION	-0.2404
-4.9999	AUTHENTICITY	-0.4280
-3.9936	AUTHOR	-0.4499
-5.5520	AUTHOR'S	-0.0333
-5.1766	AUTHORED	-0.3990
-4.8610	AUTHORITARIAN	-0.3979
-5.4473	AUTHORITARIANISM	-0.3187
-5.1293	AUTHORITATIVE	-0.1687
-5.7995	AUTHORITATIVELY	-0.1627
-3.8282	AUTHORITIES	-0.8337
-5.1729	AUTHORITIES'	-0.1755
-4.0968	AUTHORITY	-0.5593
-5.4015	AUTHORITY'S	-0.1111
-4.8461	AUTHORIZATION	-0.5349
-5.6903	AUTHORIZATIONS	-0.2493
-5.3275	AUTHORIZE	-0.1912
-4.4535	AUTHORIZED	-0.3744
-5.2532	AUTHORIZES	-0.2539
-4.9736	AUTHORIZING	-0.3148
-4.5905	AUTHORS	-0.3748
-5.7842	AUTHORS'	-0.0699
-5.6726	AUTHORSHIP	-0.2950
-5.4438	AUTISM	-0.2705
-5.5476	AUTISTIC	-0.2795
-4.1347	AUTO	-0.6502
-5.7623	AUTOBAHN	-0.1203
-5.1260	AUTOBIOGRAPHICAL	-0.2501
-5.7768	AUTOBIOGRAPHIES	-0.2096
-4.9296	AUTOBIOGRAPHY	-0.2873
-5.6903	AUTOCRACY	-0.2011
-5.7216	AUTOCRAT	-0.1754
-5.1327	AUTOCRATIC	-0.3161
-5.7695	AUTODESK	-0.1674
-4.9456	AUTOGRAPH	-0.3362
-5.0959	AUTOGRAPHED	-0.3578
-5.2317	AUTOGRAPHS	-0.3759
-5.6392	AUTOIMMUNE	-0.4586
-5.2275	AUTOMAKER	-0.2891
-6.0162	AUTOMAKER'S	-0.0461
-4.8802	AUTOMAKERS	-0.4115
-5.7995	AUTOMAKERS'	-0.0794
-6.0036	AUTOMATE	-0.1179
-4.8461	AUTOMATED	-0.2547
-4.4314	AUTOMATIC	-0.3588
-4.3542	AUTOMATICALLY	-0.3435
-5.9679	AUTOMATICS	-0.1799
-5.9566	AUTOMATING	-0.1406
-4.9950	AUTOMATION	-0.3357
-4.4304	AUTOMOBILE	-0.4918
-4.6767	AUTOMOBILES	-0.4203
-4.5446	AUTOMOTIVE	-0.4076
-4.7057	AUTONOMOUS	-0.4248
-5.8234	AUTONOMOUSLY	-0.2105
-4.5727	AUTONOMY	-0.5923
-6.5062	AUTOPACIFIC	-0.4071
-6.0036	AUTOPARTS	-0.0768
-5.9566	AUTOPILOT	-0.0906
-5.3249	AUTOPSIES	-0.4430
-4.9748	AUTOPSY	-0.4106
-5.0252	AUTOS	-0.3518
-6.1327	AUTOWORKER	-0.0483
-5.7918	AUTOWORKERS	-0.1379
-5.4109	AUTRY	-0.1935
-4.8258	AUTUMN	-0.2963
-6.1005	AUTUMN'S	-0.0220
-5.7695	AUTUMNAL	-0.0616
-5.6556	AUX	-0.0491
-5.0705	AUXILIARY	-0.2185
-5.4721	AVA	-0.2404
-5.6500	AVAIL	-0.2170
-4.7367	AVAILABILITY	-0.5559
-3.9330	AVAILABLE	-0.6365
-5.7842	AVAILED	-0.3367
-4.8081	AVALANCHE	-0.2342
-5.3021	AVALANCHES	-0.3368
-5.3893	AVALON	-0.1961
-5.9142	AVALOS	-0.0778
-4.9478	AVANT	-0.5832
-5.9566	AVANTI	-0.1022
-5.7768	AVARICE	-0.2063
-5.5063	AVE	-0.1642
-5.9042	AVEDON	-0.0550
-6.2466	AVEN	-0.0657
-5.7553	AVENDANO	-0.2003
-6.4684	AVENEL	0.0000
-5.7695	AVENGE	-0.1166
-5.0928	AVENGED	-0.6832
-5.8401	AVENGER	-0.1580
-5.3545	AVENGING	-0.3695
-4.2921	AVENUE	-0.4693
-6.1497	AVENUE'S	0.0000
-4.8954	AVENUES	-0.5244
-4.1027	AVERAGE	-0.4764
-6.4337	AVERAGE'S	-0.0737
-4.2655	AVERAGED	-1.2252
-4.6567	AVERAGES	-0.6037
-4.4235	AVERAGING	-1.1290
-6.1674	AVERELL	-0.3724
-5.5745	AVERSE	-0.2123
-5.1993	AVERSION	-0.5688
-5.4141	AVERT	-0.1928
-4.9402	AVERTED	-0.4318
-5.1974	AVERTING	-0.4065
-5.9679	AVERTS	-0.2995
-4.8746	AVERY	-0.3463
-5.3071	AVI	-0.2198
-6.7694	AVIACION	0.0000
-5.8574	AVIANO	-0.2355
-5.9244	AVIARY	-0.1835
-4.3139	AVIATION	-0.4946
-6.1859	AVIATION'S	-0.0166
-5.4046	AVIATOR	-0.2586
-5.4649	AVIATORS	-0.2201
-5.1993	AVID	-0.1357
-5.3803	AVIDLY	-0.2146
-5.2132	AVILA	-0.2770
-5.7842	AVILES	-0.1871
-5.4869	AVIONICS	-0.2580
-5.4371	AVIS	-0.1988
-5.8574	AVITAL	-0.1539
-5.8152	AVIV	-0.0074
-6.9455	AVIV'S	0.0000
-5.6843	AVNER	-0.2089
-5.9794	AVNET	-0.1360
-5.3121	AVOCADO	-0.2031
-5.6286	AVOCADOS	-0.1957
-5.9142	AVOCATION	-0.2317
-4.4772	AVOID	-0.2123
-5.6234	AVOIDABLE	-0.1812
-5.2052	AVOIDANCE	-0.3199
-4.3473	AVOIDED	-0.4502
-4.5240	AVOIDING	-0.3078
-4.9042	AVOIDS	-0.2123
-5.1859	AVON	-0.2407
-5.9913	AVON'S	-0.0383
-5.8401	AVONDALE	-0.1618
-5.5306	AVOWED	-0.1212
-5.9913	AVOWEDLY	-0.0941
-5.3249	AVRAHAM	-0.2693
-5.9042	AVRAM	-0.1457
-5.9244	AVRIL	-0.1401
-6.0036	AVTOVAZ	-0.1619
-5.7088	AVUNCULAR	-0.0630
-5.3545	AW	-0.2044
-5.5564	AWACS	-0.3562
-5.2643	AWAD	-0.2887
-4.8018	AWAIT	-0.3611
-4.7553	AWAITED	-0.2058
-4.3748	AWAITING	-0.5043
-4.7354	AWAITS	-0.4397
-5.0605	AWAKE	-0.4753
-5.6446	AWAKEN	-0.2233
-5.0507	AWAKENED	-0.4315
-5.1497	AWAKENING	-0.3467
-5.5564	AWAKENS	-0.2718
-5.9142	AWAN	-0.1255
-4.0417	AWARD	-0.6405
-4.3630	AWARDED	-0.4550
-4.9193	AWARDING	-0.3094
-4.2614	AWARDS	-0.6211
-4.5704	AWARE	-0.6138
-4.4776	AWARENESS	-0.6319
-5.1052	AWASH	-0.7490
-3.6664	AWAY	-0.5983
-6.2254	AWAYS	-0.1003
-5.9794	AWB	-0.1274
-5.1147	AWE	-0.4012
-5.3275	AWED	-0.3151
-5.0213	AWESOME	-0.1707
-5.6131	AWESTRUCK	-0.1895
-4.9182	AWFUL	-0.2171
-5.2948	AWFULLY	-0.2621
-5.3328	AWHILE	-0.3328
-4.8691	AWKWARD	-0.2122
-5.0318	AWKWARDLY	-0.2585
-5.6131	AWKWARDNESS	-0.3433
-5.6612	AWNING	-0.1914
-4.8954	AWOKE	-0.6011
-5.6784	AWRY	-0.2141
-5.9456	AWTREY	-0.2379
-5.1955	AX	-0.2620
-5.5223	AXA	-0.3117
-5.5265	AXE	-0.1493
-5.4869	AXED	-0.2539
-5.1674	AXEL	-0.2155
-5.6032	AXELROD	-0.3431
-5.2876	AXES	-0.2951
-5.5609	AXIOM	-0.2277
-6.2254	AXIOMATIC	-0.2179
-5.0676	AXIS	-0.3094
-5.5183	AXLE	-0.1785
-5.7347	AXLES	-0.2754
-5.8664	AXTELL	-0.1017
-5.4984	AY	-0.0888
-6.2466	AYACUCHO	-0.0887
-5.9042	AYAKO	-0.2328
-4.8774	AYALA	-0.3054
-5.0943	AYATOLLAH	-0.5049
-6.1005	AYATOLLAHS	-0.0938
-6.1327	AYBAR	-0.0419
-5.6668	AYDIN	-0.1413
-5.4758	AYE	-0.1896
-5.4869	AYER	-0.2397
-5.2466	AYERS	-0.2842
-7.1677	AYERST	0.0000
-5.9679	AYKROYD	-0.0825
-5.7842	AYLING	-0.1998
-5.9679	AYLWARD	-0.1192
-5.8152	AYN	-0.5167
-6.0563	AYO	-0.1521
-5.9142	AYODHYA	-0.1970
-5.8755	AYOTTE	-0.2445
-5.6446	AYOUB	-0.1946
-6.1163	AYR	-0.0757
-5.6234	AYRES	-0.2647
-5.8849	AYUSO	-0.1867
-6.0162	AYYAD	-0.0788
-5.4984	AYYASH	-0.3151
-5.6500	AZALEA	-0.1249
-5.4758	AZALEAS	-0.2535
-5.6556	AZAR	-0.1437
-5.8755	AZCARRAGA	-0.1584
-4.8849	AZERBAIJAN	-0.3298
-5.2317	AZERBAIJAN'S	-0.2049
-5.2359	AZERBAIJANI	-0.2560
-5.9042	AZERBAIJANIS	-0.1428
-5.4271	AZERI	-0.2215
-5.6964	AZEVEDO	-0.1745
-5.2997	AZHAR	-0.2352
-5.3096	AZINGER	-0.1729
-4.5778	AZIZ	-0.3485
-6.1674	AZORES	-0.0662
-5.5023	AZTEC	-0.1131
-5.5433	AZTECA	-0.1304
-6.0852	AZTECS	-0.0429
-5.6612	AZURE	-0.1886
-5.8073	B'NAI	-0.5757
-7.0704	B'RITH	0.0000
-5.5564	B'S	-0.0887
-3.6689	B.	-0.4393
-5.9679	B.'S	-0.0870
-5.8574	BAALBEK	-0.1412
-6.0852	BAAS	-0.1320
-5.8664	BAB	-0.1889
-5.1179	BABA	-0.2258
-5.8234	BABANGIDA	-0.1194
-5.9566	BABB	-0.1105
-4.9725	BABBITT	-0.2853
-5.6446	BABBITT'S	-0.1088
-5.5102	BABBLE	-0.2774
-5.5348	BABBLING	-0.1840
-5.2013	BABCOCK	-0.2660
-4.6940	BABE	-0.4630
-5.7088	BABEL	-0.1394
-6.0563	BABER	-0.2121
-6.2254	BABERS	-0.1424
-5.2554	BABES	-0.3490
-5.7415	BABIC	-0.2108
-4.4942	BABIES	-0.5424
-5.6726	BABIES'	-0.0643
-5.5745	BABOON	-0.2087
-5.5609	BABOONS	-0.2028
-5.8152	BABS	-0.1183
-5.9244	BABSON	-0.1915
-5.6081	BABU	-0.1525
-4.0661	BABY	-0.4349
-5.5142	BABY'S	-0.1227
-5.5983	BABYLON	-0.2673
-6.1163	BABYLONIAN	-0.0121
-5.9142	BABYSITTER	-0.1668
-6.0852	BABYSITTERS	-0.1279
-5.9244	BABYSITTING	-0.0889
-5.3302	BACA	-0.2599
-5.6903	BACALL	-0.0819
-5.5223	BACARDI	-0.2593
-6.0425	BACCALAUREATE	-0.0781
-5.8401	BACCARAT	-0.1451
-5.7695	BACCHUS	-0.1754
-6.1327	BACCUS	-0.1797
-4.8700	BACH	-0.2831
-5.9244	BACHA	-0.2672
-6.0563	BACHAR	-0.1269
-5.8849	BACHARACH	-0.0692
-6.2466	BACHE	-0.0624
-5.0371	BACHELOR	-0.2949
-5.4271	BACHELOR'S	-0.6217
-5.5699	BACHELORS	-0.2084
-5.7483	BACHER	-0.1775
-5.6182	BACHMAN	-0.2690
-5.9349	BACHMANN	-0.1647
-5.8849	BACHRACH	-0.1570
-6.0425	BACHUS	-0.2513
-5.7151	BACILLUS	-0.3207
-3.3409	BACK	-0.7107
-6.1005	BACKACHE	-0.1724
-5.7995	BACKBITING	-0.1695
-5.9349	BACKBOARD	-0.1163
-4.9736	BACKBONE	-0.3495
-5.8487	BACKDATED	-0.3829
-5.5792	BACKDOOR	-0.1304
-4.7688	BACKDROP	-0.4537
-5.4173	BACKDROPS	-0.4172
-3.9391	BACKED	-0.5182
-5.0425	BACKER	-0.3771
-4.5078	BACKERS	-0.5183
-5.2712	BACKFIELD	-0.2135
-5.4795	BACKFIRE	-0.3734
-5.0943	BACKFIRED	-0.4900
-5.8401	BACKFIRES	-0.2901
-5.9794	BACKFIRING	-0.2243
-6.0425	BACKGAMMON	-0.1418
-4.2100	BACKGROUND	-0.5124
-4.8316	BACKGROUNDS	-0.4296
-4.8426	BACKHAND	-0.4615
-5.3249	BACKHANDED	-0.2828
-6.0291	BACKHOE	-0.0697
-4.2056	BACKING	-0.5314
-4.8839	BACKLASH	-0.5002
-5.8152	BACKLESS	-0.0600
-5.1514	BACKLOG	-0.4017
-5.9244	BACKLOGGED	-0.1267
-5.5609	BACKLOGS	-0.3835
-5.2112	BACKPACK	-0.2584
-5.2092	BACKPACKS	-0.3130
-6.1859	BACKPEDAL	-0.0977
-5.6032	BACKPEDALED	-0.2847
-5.6338	BACKPEDALING	-0.2218
-5.5476	BACKROOM	-0.2311
-4.4798	BACKS	-0.3363
-6.0425	BACKSEAT	-0.0561
-5.4078	BACKSIDE	-0.1925
-5.9349	BACKSLAPPING	-0.0833
-6.0705	BACKSLIDE	-0.1898
-5.6556	BACKSLIDING	-0.3905
-4.7588	BACKSTAGE	-0.2939
-5.7995	BACKSTOP	-0.1551
-5.7347	BACKSTROKE	-0.2155
-5.8849	BACKTRACK	-0.2057
-5.4205	BACKTRACKED	-0.4209
-5.5609	BACKTRACKING	-0.3691
-4.3454	BACKUP	-0.4704
-5.1211	BACKUPS	-0.3395
-5.6286	BACKUS	-0.2419
-4.5773	BACKWARD	-0.4187
-5.5564	BACKWARDNESS	-0.2740
-4.9877	BACKWARDS	-0.4463
-5.2805	BACKWATER	-0.2615
-5.8574	BACKWATERS	-0.2553
-5.5983	BACKWOODS	-0.0267
-4.8868	BACKYARD	-0.2438
-5.6392	BACKYARDS	-0.2535
-4.5792	BACON	-0.3677
-5.7842	BACON'S	-0.0266
-4.6376	BACTERIA	-0.4796
-5.1480	BACTERIAL	-0.3367
-5.3954	BACTERIUM	-0.2251
-3.9656	BAD	-0.5263
-6.0162	BADA	-0.1923
-6.0291	BADAL	-0.0763
-5.3687	BADE	-0.4462
-5.3302	BADEN	-0.3063
-5.3408	BADER	-0.2474
-5.0411	BADGE	-0.3735
-5.5306	BADGER	-0.1209
-5.6964	BADGERED	-0.2565
-5.6784	BADGERING	-0.1890
-5.6182	BADGERS	-0.0764
-5.0535	BADGES	-0.4324
-6.0036	BADGLEY	-0.3856
-6.1005	BADIA	-0.0731
-5.6726	BADILLO	-0.2195
-5.6612	BADLANDS	-0.2338
-4.1992	BADLY	-0.6095
-4.9667	BADMINTON	-0.3587
-5.2948	BAE	-0.2423
-5.9913	BAEK	-0.1148
-5.1840	BAER	-0.3129
-5.2997	BAEZ	-0.2119
-5.9142	BAFFLE	-0.0799
-5.0989	BAFFLED	-0.3579
-5.7918	BAFFLES	-0.1829
-5.3355	BAFFLING	-0.1539
-4.4839	BAG	-0.4366
-5.7918	BAGAN	-0.2456
-5.8755	BAGBY	-0.2071
-5.3302	BAGEL	-0.2334
-5.2052	BAGELS	-0.3385
-4.7724	BAGGAGE	-0.4276
-5.0061	BAGGED	-0.4726
-5.4015	BAGGING	-0.2837
-5.1293	BAGGIO	-0.2401
-5.7918	BAGGIO'S	-0.0654
-5.1916	BAGGY	-0.3130
-4.6668	BAGHDAD	-0.3483
-5.0633	BAGHDAD'S	-0.2226
-5.6182	BAGLEY	-0.2426
-5.7842	BAGPIPE	-0.2201
-6.2924	BAGPIPER	-0.0383
-5.7483	BAGPIPES	-0.2224
-4.4398	BAGS	-0.5237
-5.1131	BAGWELL	-0.2663
-5.5609	BAH	-0.2577
-6.1674	BAHAMA	-0.0527
-5.3096	BAHAMAS	-0.1068
-5.3774	BAHAMIAN	-0.1577
-5.5983	BAHIA	-0.2056
-6.0563	BAHMAN	-0.0839
-6.1163	BAHN	-0.0264
-5.5348	BAHR	-0.3465
-4.8637	BAHRAIN	-0.3188
-5.2972	BAHRAIN'S	-0.2344
-5.2488	BAHRAINI	-0.2220
-5.6784	BAHRAINIS	-0.1901
-5.8664	BAHRE	-0.1713
-5.0591	BAHT	-0.3229
-5.7415	BAIDOA	-0.2257
-5.9794	BAIG	-0.1354
-4.6376	BAIL	-0.5331
-6.6445	BAILARD	-0.4711
-5.0239	BAILED	-0.7234
-5.9244	BAILES	-0.1328
-4.4404	BAILEY	-0.4203
-5.2900	BAILEY'S	-0.1022
-6.0291	BAILIFF	-0.1067
-5.9349	BAILIFFS	-0.0876
-5.2621	BAILING	-0.5733
-6.1859	BAILLY	-0.0530
-4.9213	BAILOUT	-0.4762
-5.4015	BAILOUTS	-0.4019
-5.7483	BAILS	-0.2394
-5.9566	BAILY	-0.1544
-5.2275	BAIN	-0.3046
-5.7695	BAINBRIDGE	-0.2395
-5.6338	BAINES	-0.1360
-6.3435	BAINS	-0.0511
-5.9349	BAIR	-0.1547
-5.0928	BAIRD	-0.3101
-6.0291	BAIRD'S	-0.0320
-6.0563	BAISE	-0.1660
-4.9296	BAIT	-0.3260
-5.5792	BAITED	-0.2429
-5.4869	BAITING	-0.1536
-5.6556	BAITS	-0.1955
-5.5306	BAIUL	-0.1736
-5.2275	BAJA	-0.2937
-5.9913	BAJARIN	-0.4242
-5.7553	BAK	-0.1154
-6.1674	BAKA	-0.0504
-5.0734	BAKE	-0.3013
-4.7388	BAKED	-0.3277
-4.2265	BAKER	-0.4699
-5.1411	BAKER'S	-0.0757
-5.1228	BAKERIES	-0.3597
-5.3249	BAKERS	-0.2412
-5.6612	BAKERSFIELD	-0.2139
-4.8002	BAKERY	-0.3488
-5.6234	BAKES	-0.2155
-4.7652	BAKING	-0.3965
-5.7281	BAKKE	-0.1597
-6.0036	BAKKEN	-0.1979
-5.6843	BAKKER	-0.1784
-5.6500	BAKLEY	-0.2036
-5.7347	BAKRIE	-0.1954
-5.6338	BAKSHI	-0.3176
-5.3984	BAKU	-0.2273
-6.2052	BAKULA	-0.0493
-5.5223	BAL	-0.2372
-5.5476	BALA	-0.1453
-6.0563	BALABAN	-0.0566
-5.2852	BALAGUER	-0.2583
-4.2447	BALANCE	-0.4954
-4.4616	BALANCED	-0.3774
-4.9467	BALANCES	-0.3640
-5.3435	BALANCHINE	-0.1833
-5.7347	BALANCHINE'S	-0.0769
-4.7177	BALANCING	-0.3790
-7.2897	BALART	0.0000
-5.8755	BALATA	-0.2082
-5.9142	BALAZS	-0.1428
-5.8073	BALBO	-0.1018
-5.5142	BALBOA	-0.2087
-5.6843	BALCEROWICZ	-0.1934
-5.2598	BALCONIES	-0.3092
-5.1195	BALCONY	-0.2907
-4.8839	BALD	-0.3764
-6.0425	BALDASSARE	-0.2841
-6.1859	BALDI	-0.1194
-5.3545	BALDING	-0.1639
-5.9566	BALDINI	-0.1848
-5.8487	BALDLY	-0.0194
-5.7088	BALDNESS	-0.2212
-5.8152	BALDRIDGE	-0.0819
-6.1674	BALDRIGE	-0.1042
-5.9913	BALDRY	-0.1701
-4.7327	BALDWIN	-0.2948
-5.6726	BALDWIN'S	-0.0300
-5.4795	BALE	-0.1574
-6.1859	BALEEN	-0.1736
-5.9349	BALEFUL	-0.0339
-5.2924	BALES	-0.3483
-5.3601	BALFOUR	-0.2150
-5.1310	BALI	-0.2251
-5.7842	BALIK	-0.4184
-5.6081	BALINESE	-0.1009
-5.8944	BALING	-0.2496
-5.2445	BALK	-0.4497
-4.7476	BALKAN	-0.3894
-6.0705	BALKANIZATION	-0.2674
-5.9566	BALKANIZED	-0.0674
-5.2488	BALKANS	-0.0957
-4.7120	BALKED	-0.7740
-5.5348	BALKING	-0.4835
-5.5183	BALKS	-0.4492
-5.6612	BALKY	-0.0509
-4.0875	BALL	-0.4467
-5.5699	BALL'S	-0.0373
-4.9306	BALLAD	-0.3217
-4.9132	BALLADS	-0.4102
-5.1550	BALLADUR	-0.2463
